svm_type c_svc
kernel_type rbf
gamma 2.500000e+000
nr_class 2
total_sv 4379
rho 7.447210e-001
label 1 2
nr_sv 1524 2855
SV
1.578361e+001	1:3.105070e-001	2:2.447688e-001	3:1.734499e-001	4:-2.885787e-002	5:-1.969060e-001	6:-8.191700e-001	7:-6.964502e-001	8:-1.840967e-001	9:-5.067519e-001	10:2.769223e-001	11:3.794324e-001	12:4.548274e-001
1.578361e+001	1:3.721645e-002	2:1.360985e-001	3:2.496292e-001	4:-1.893642e-002	5:-1.770188e-001	6:-7.369071e-001	7:-8.535733e-001	8:-2.403843e-001	9:-5.081461e-001	10:2.851642e-001	11:3.935899e-001	12:4.663056e-001
1.578361e+001	1:1.322740e-001	2:8.780055e-002	3:2.654998e-001	4:-2.602783e-002	5:-2.512043e-001	6:-9.028141e-001	7:-2.741897e-001	8:1.226288e-001	9:-2.975349e-001	10:2.552756e-001	11:3.357960e-001	12:4.258885e-001
1.578361e+001	1:3.818002e-001	2:2.689178e-001	3:2.289973e-001	4:-3.591161e-002	5:-7.754207e-001	6:-1.148115e+000	7:-6.733554e-001	8:-1.420781e-001	9:-4.586587e-001	10:2.789234e-001	11:3.636555e-001	12:4.739607e-001
1.578361e+001	1:2.392138e-001	2:2.689178e-001	3:2.226490e-001	4:-1.963238e-001	5:-3.031888e-001	6:-9.177590e-001	7:-4.120013e-001	8:-1.327724e-001	9:-2.625801e-001	10:6.710412e-002	11:3.644935e-001	12:4.986359e-001
1.578361e+001	1:3.721645e-002	2:1.119495e-001	3:2.845447e-001	4:-1.005052e-001	5:-2.305157e-001	6:-8.523597e-001	7:-6.507547e-001	8:-2.298269e-001	9:-6.039487e-001	10:2.744993e-001	11:3.809101e-001	12:4.814486e-001
1.578361e+001	1:1.085096e-001	2:7.572607e-002	3:2.893059e-001	4:2.339520e-002	5:-2.457419e-001	6:-7.876405e-001	7:-6.918507e-001	8:-2.696527e-001	9:-6.032415e-001	10:2.545253e-001	11:3.444806e-001	12:4.598076e-001
1.578361e+001	1:2.392138e-001	2:3.413647e-001	3:2.305844e-001	4:-6.754524e-002	5:-3.467507e-001	6:-9.453386e-001	7:-4.538723e-001	8:-9.936959e-002	9:-4.757275e-001	10:2.718724e-001	11:3.829881e-001	12:4.867415e-001
1.578361e+001	1:3.342714e-001	2:3.655137e-001	3:2.353456e-001	4:-7.469378e-002	5:-3.777577e-001	6:-9.932074e-001	7:-3.400073e-001	8:1.082714e-001	9:-1.188971e-001	10:2.753157e-001	11:3.692220e-001	12:4.413576e-001
1.578361e+001	1:1.679206e-001	2:-8.795319e-003	3:2.750222e-001	4:-4.005519e-002	5:-3.558811e-001	6:-9.432290e-001	7:-4.398838e-001	8:-1.328345e-001	9:-5.234588e-001	10:2.285184e-001	11:3.256265e-001	12:4.366371e-001
1.578361e+001	1:1.441562e-001	2:2.085454e-001	3:2.528033e-001	4:-2.006745e-002	5:-6.994499e-001	6:-1.004441e+000	7:-6.749731e-001	8:-2.394285e-001	9:-5.061448e-001	10:3.050306e-001	11:3.911645e-001	12:5.139021e-001
1.578361e+001	1:2.867426e-001	2:2.206199e-001	3:1.940818e-001	4:1.750513e-002	5:-2.669837e-001	6:-9.191662e-001	7:-5.732106e-001	8:-1.019863e-001	9:-5.625136e-001	10:2.540738e-001	11:3.313985e-001	12:4.307174e-001
1.578361e+001	1:2.154494e-001	2:2.568433e-001	3:2.210620e-001	4:-8.298592e-002	5:-2.237615e-001	6:-8.500940e-001	7:-7.493859e-001	8:-1.629997e-001	9:-5.620889e-001	10:2.899890e-001	11:3.563694e-001	12:4.544492e-001
1.578361e+001	1:7.286304e-002	2:1.481730e-001	3:2.797835e-001	4:3.232036e-003	5:-1.426247e-001	6:-7.418102e-001	7:-8.266010e-001	8:-1.830216e-001	9:-5.005235e-001	10:2.651899e-001	11:3.668115e-001	12:4.802926e-001
1.578361e+001	1:2.154494e-001	2:2.689178e-001	3:1.813853e-001	4:-4.459865e-002	5:-4.375317e-001	6:-9.281864e-001	7:-5.529465e-001	8:-1.545662e-001	9:-4.273186e-001	10:2.808951e-001	11:3.516560e-001	12:5.226423e-001
1.578361e+001	1:2.629782e-001	2:3.051413e-001	3:1.845594e-001	4:-7.094440e-002	5:-2.009152e-001	6:-7.587574e-001	7:-8.254762e-001	8:-1.972134e-001	9:-5.374681e-001	10:2.559372e-001	11:3.379236e-001	12:4.632587e-001
1.578361e+001	1:4.909865e-002	2:2.689178e-001	3:2.131266e-001	4:-1.435182e-001	5:-2.845329e-001	6:-9.326263e-001	7:-5.163177e-001	8:-3.611986e-002	9:-1.335800e-001	10:2.390755e-001	11:3.702670e-001	12:4.823858e-001
1.000246e+001	1:2.629782e-001	2:4.138116e-001	3:1.924947e-001	4:1.885367e-002	5:-2.215983e-001	6:-8.179670e-001	7:-6.883809e-001	8:-1.781690e-001	9:-4.273240e-001	10:9.418158e-002	11:3.368597e-001	12:4.954137e-001
1.578361e+001	1:4.055646e-001	2:2.326944e-001	3:2.020171e-001	4:9.673688e-002	5:-2.436383e-001	6:-8.535519e-001	7:-6.838287e-001	8:-1.793686e-001	9:-5.680763e-001	10:2.707038e-001	11:3.319157e-001	12:4.694375e-001
1.578361e+001	1:1.441562e-001	2:3.950262e-002	3:2.226490e-001	4:-1.384792e-001	5:-2.322624e-001	6:-8.930054e-001	7:-7.117981e-001	8:-1.307912e-001	9:-4.221400e-001	10:2.508135e-001	11:3.654140e-001	12:4.647072e-001
1.578361e+001	1:7.286304e-002	2:1.360985e-001	3:2.575645e-001	4:-1.552422e-001	5:-3.922915e-001	6:-9.870563e-001	7:-7.358911e-001	8:-1.259976e-001	9:-4.577352e-001	10:2.596752e-001	11:3.284705e-001	12:4.375190e-001
1.578361e+001	1:3.342714e-001	2:2.447688e-001	3:1.559922e-001	4:1.718093e-002	5:-2.905651e-001	6:-8.776952e-001	7:-5.102205e-001	8:-1.852274e-001	9:-5.687185e-001	10:2.848540e-001	11:3.665790e-001	12:4.849501e-001
1.578361e+001	1:-3.407673e-002	2:5.157710e-002	3:1.940818e-001	4:-1.583351e-001	5:-2.432174e-001	6:-7.942006e-001	7:-7.584604e-001	8:-7.882482e-002	9:-4.108282e-001	10:2.178823e-001	11:3.040783e-001	12:3.868321e-001
1.578361e+001	1:1.203918e-001	2:7.572607e-002	3:1.242508e-001	4:-1.249667e-001	5:-2.507462e-001	6:-8.751133e-001	7:-6.118874e-001	8:-1.347746e-001	9:-3.422077e-001	10:2.561764e-001	11:3.713438e-001	12:4.875067e-001
1.578361e+001	1:3.721645e-002	2:-3.294429e-002	3:1.797982e-001	4:8.681643e-003	5:-2.624060e-001	6:-8.430027e-001	7:-6.613981e-001	8:-2.620236e-001	9:-6.286505e-001	10:2.352456e-001	11:2.952111e-001	12:4.115710e-001
1.578361e+001	1:7.286304e-002	2:2.206199e-001	3:1.353603e-001	4:-1.090387e-003	5:-1.918405e-001	6:-8.227211e-001	7:-6.675056e-001	8:-1.965376e-001	9:-4.561439e-001	10:1.958422e-001	11:3.699481e-001	12:4.713843e-001
1.578361e+001	1:7.286304e-002	2:1.240240e-001	3:1.496439e-001	4:-9.117821e-002	5:-5.137945e-001	6:-9.893065e-001	7:-6.031687e-001	8:-2.302677e-001	9:-4.679475e-001	10:2.762198e-001	11:3.610262e-001	12:5.013798e-001
1.578361e+001	1:1.203918e-001	2:2.206199e-001	3:1.305991e-001	4:8.128814e-002	5:-5.021740e-001	6:-8.050041e-001	7:-7.420014e-001	8:-2.111102e-001	9:-4.902161e-001	10:2.490967e-001	11:3.399973e-001	12:4.381570e-001
1.578361e+001	1:2.154494e-001	2:2.206199e-001	3:1.321862e-001	4:-4.875280e-002	5:-2.280390e-001	6:-8.334599e-001	7:-6.869958e-001	8:-1.695434e-001	9:-5.527812e-001	10:2.838665e-001	11:3.694233e-001	12:4.537121e-001
1.578361e+001	1:2.154494e-001	2:1.602475e-001	3:1.480569e-001	4:-7.967349e-002	5:-3.294086e-001	6:-8.803115e-001	7:-6.236464e-001	8:-2.626853e-001	9:-5.984738e-001	10:2.646052e-001	11:3.410022e-001	12:4.809277e-001
1.578361e+001	1:1.345206e-002	2:2.742813e-002	3:1.797982e-001	4:2.891447e-002	5:-1.658966e-001	6:-7.520979e-001	7:-8.227723e-001	8:-2.880225e-001	9:-5.972821e-001	10:2.466690e-001	11:3.482847e-001	12:4.740728e-001
1.578361e+001	1:1.798028e-001	2:2.326944e-001	3:1.115543e-001	4:1.560175e-002	5:-2.401445e-001	6:-8.267145e-001	7:-5.225877e-001	8:-2.519189e-001	9:-5.665326e-001	10:2.816960e-001	11:4.088208e-001	12:4.966875e-001
1.578361e+001	1:3.721645e-002	2:2.742813e-002	3:1.655146e-001	4:4.306866e-002	5:-1.526094e-001	6:-7.657273e-001	7:-7.611509e-001	8:-2.830530e-001	9:-6.092735e-001	10:2.561715e-001	11:3.594510e-001	12:4.522225e-001
1.578361e+001	1:2.533425e-002	2:6.365158e-002	3:1.496439e-001	4:-1.609492e-001	5:-2.344971e-001	6:-7.066460e-001	7:-8.943874e-001	8:-2.495495e-001	9:-5.832003e-001	10:2.719307e-001	11:3.410658e-001	12:4.568765e-001
1.578361e+001	1:6.098085e-002	2:7.572607e-002	3:1.099672e-001	4:-9.515710e-002	5:-4.196400e-001	6:-8.682885e-001	7:-1.815589e-001	8:-1.211369e-001	9:-3.300582e-001	10:2.871023e-001	11:3.496569e-001	12:4.968872e-001
1.578361e+001	1:2.629782e-001	2:2.206199e-001	3:1.020319e-001	4:3.631872e-002	5:-5.147916e-001	6:-8.715928e-001	7:-5.273465e-001	8:-1.998491e-001	9:-4.144381e-001	10:2.441169e-001	11:3.752046e-001	12:4.807002e-001
1.578361e+001	1:1.345206e-002	2:6.365158e-002	3:1.797982e-001	4:-3.677899e-002	5:-1.873829e-001	6:-7.869648e-001	7:-6.857851e-001	8:-1.737449e-001	9:-5.797830e-001	10:2.467694e-001	11:2.969711e-001	12:3.902742e-001
1.578361e+001	1:9.662744e-002	2:1.843964e-001	3:1.353603e-001	4:-1.012970e-001	5:-1.884062e-001	6:-8.625778e-001	7:-4.971342e-001	8:-1.106384e-001	9:-1.784573e-001	10:1.958992e-001	11:3.664557e-001	12:4.847673e-001
1.578361e+001	1:2.510960e-001	2:2.568433e-001	3:1.544051e-001	4:-2.353965e-002	5:-2.347967e-001	6:-8.075367e-001	7:-6.235741e-001	8:-2.311095e-001	9:-5.434617e-001	10:2.867279e-001	11:3.625381e-001	12:4.711399e-001
1.578361e+001	1:1.569858e-003	2:1.360985e-001	3:2.321714e-001	4:-1.766031e-001	5:-2.455105e-001	6:-7.572049e-001	7:-8.309230e-001	8:-2.261550e-001	9:-5.035691e-001	10:2.753532e-001	11:3.064029e-001	12:4.071138e-001
1.578361e+001	1:2.154494e-001	2:2.930668e-001	3:1.988430e-001	4:-2.317081e-002	5:-3.625900e-001	6:-8.598527e-001	7:-3.366575e-001	8:-1.392542e-001	9:-3.415569e-001	10:2.367706e-001	11:3.882092e-001	12:4.908851e-001
1.578361e+001	1:2.986248e-001	2:1.360985e-001	3:2.004301e-001	4:-5.658873e-002	5:-2.167000e-001	6:-7.855507e-001	7:-7.923790e-001	8:-2.299777e-001	9:-4.695485e-001	10:2.746138e-001	11:3.496247e-001	12:4.444712e-001
1.578361e+001	1:1.085096e-001	2:1.481730e-001	3:2.639128e-001	4:-1.293814e-001	5:-1.786277e-001	6:-7.444970e-001	7:-8.338063e-001	8:-3.009115e-001	9:-4.929673e-001	10:2.839859e-001	11:4.009068e-001	12:5.090617e-001
1.578361e+001	1:7.286304e-002	2:8.780055e-002	3:2.480421e-001	4:1.736311e-003	5:-3.235615e-001	6:-9.327611e-001	7:-6.943058e-001	8:-1.834756e-001	9:-4.547722e-001	10:2.422373e-001	11:3.251641e-001	12:4.289820e-001
1.578361e+001	1:8.474524e-002	2:2.809923e-001	3:2.020171e-001	4:-1.560971e-001	5:-2.663719e-001	6:-7.989893e-001	7:-7.634221e-001	8:-2.186786e-001	9:-3.554684e-001	10:1.642996e-001	11:3.837821e-001	12:4.990837e-001
1.578361e+001	1:8.474524e-002	2:-4.501877e-002	3:2.321714e-001	4:-4.470697e-002	5:-1.821777e-001	6:-7.380916e-001	7:-9.523346e-001	8:-3.506970e-001	9:-5.489659e-001	10:2.313080e-001	11:3.349564e-001	12:4.302273e-001
1.578361e+001	1:2.154494e-001	2:2.568433e-001	3:1.623405e-001	4:-2.916469e-003	5:-2.224194e-001	6:-8.199261e-001	7:-6.185584e-001	8:-2.549810e-001	9:-6.023291e-001	10:2.890564e-001	11:3.716221e-001	12:4.684218e-001
1.578361e+001	1:2.510960e-001	2:1.602475e-001	3:2.004301e-001	4:-5.912330e-002	5:-2.348328e-001	6:-7.555590e-001	7:-8.440533e-001	8:-2.849926e-001	9:-5.711453e-001	10:2.811770e-001	11:3.862962e-001	12:4.781149e-001
1.578361e+001	1:1.085096e-001	2:3.950262e-002	3:1.194896e-001	4:1.274682e-002	5:-1.617134e-001	6:-7.432421e-001	7:-7.126146e-001	8:-3.043436e-001	9:-6.165966e-001	10:2.241713e-001	11:3.438350e-001	12:4.824842e-001
1.578361e+001	1:3.721645e-002	2:3.279164e-003	3:1.369474e-001	4:-1.373164e-002	5:-4.396428e-001	6:-8.611465e-001	7:-2.445883e-001	8:9.956236e-004	9:-2.728040e-001	10:2.413810e-001	11:3.106913e-001	12:3.946199e-001
1.578361e+001	1:2.392138e-001	2:-1.071350e+000	3:1.052060e-001	4:-7.552548e-002	5:-2.378264e-001	6:-8.534146e-001	7:-8.379609e-001	8:-3.248689e-001	9:-5.548044e-001	10:2.262078e-001	11:3.052984e-001	12:3.873861e-001
-7.318334e+000	1:-1.055946e+000	2:7.398227e-001	3:1.131414e-001	4:-1.965814e-002	5:-1.518217e-001	6:-5.564633e-001	7:-4.956338e-001	8:-1.386165e-001	9:-6.167659e-001	10:2.725539e-001	11:3.894729e-001	12:5.000457e-001
1.578361e+001	1:2.154494e-001	2:1.843964e-001	3:3.765946e-001	4:-2.872202e-003	5:-1.850629e-001	6:-7.605541e-001	7:-6.837367e-001	8:-1.824401e-001	9:-5.524913e-001	10:2.858210e-001	11:3.548503e-001	12:4.480501e-001
1.578361e+001	1:1.798028e-001	2:3.413647e-001	3:2.480421e-001	4:-9.157977e-002	5:-3.681407e-001	6:-8.311338e-001	7:-7.049468e-001	8:-2.591859e-001	9:-5.078441e-001	10:2.653632e-001	11:3.691919e-001	12:5.186154e-001
1.578361e+001	1:3.342714e-001	2:4.258861e-001	3:2.353456e-001	4:-1.033715e-002	5:-2.329870e-001	6:-8.119121e-001	7:-5.452343e-001	8:-2.840670e-001	9:-5.726829e-001	10:2.882595e-001	11:3.789451e-001	12:4.962911e-001
1.578361e+001	1:1.916850e-001	2:3.279164e-003	3:2.718481e-001	4:-1.007129e-002	5:-1.869403e-001	6:-7.672981e-001	7:-8.302590e-001	8:-3.205989e-001	9:-5.967695e-001	10:2.718067e-001	11:3.326270e-001	12:4.312173e-001
1.578361e+001	1:1.569858e-003	2:8.780055e-002	3:2.829576e-001	4:-4.965261e-002	5:-1.971746e-001	6:-7.151416e-001	7:-8.733458e-001	8:-2.616508e-001	9:-5.617543e-001	10:2.350940e-001	11:3.595431e-001	12:4.565953e-001
1.578361e+001	1:1.916850e-001	2:2.742813e-002	3:3.194601e-001	4:-6.851810e-002	5:-2.238130e-001	6:-8.267775e-001	7:-7.910349e-001	8:-3.496107e-001	9:-6.104052e-001	10:2.684744e-001	11:3.619617e-001	12:4.834849e-001
1.578361e+001	1:2.533425e-002	2:1.119495e-001	3:3.226343e-001	4:-1.393745e-001	5:-1.301500e-001	6:-7.539659e-001	7:-7.629210e-001	8:-2.965554e-001	9:-6.139708e-001	10:2.410646e-001	11:3.423062e-001	12:4.421626e-001
1.578361e+001	1:1.085096e-001	2:2.206199e-001	3:3.004153e-001	4:2.945599e-002	5:-1.967859e-001	6:-8.285340e-001	7:-6.617538e-001	8:-5.363785e-002	9:-4.352998e-001	10:1.762879e-001	11:3.481072e-001	12:4.442689e-001
1.578361e+001	1:3.936824e-001	2:2.809923e-001	3:1.290120e-001	4:-5.234494e-002	5:-6.098864e-001	6:-8.936090e-001	7:-8.580865e-001	8:-2.375135e-001	9:-4.854712e-001	10:2.407547e-001	11:3.299942e-001	12:4.441958e-001
1.578361e+001	1:2.748604e-001	2:9.987504e-002	3:2.353456e-001	4:-2.350578e-002	5:-5.479186e-001	6:-1.114308e+000	7:-6.360061e-001	8:-3.817703e-002	9:-3.152126e-001	10:2.732290e-001	11:3.130580e-001	12:4.070418e-001
-7.318334e+000	1:-6.875976e-001	2:8.364186e-001	3:2.178878e-001	4:1.550252e-001	5:-9.620781e-002	6:-8.442911e-001	7:-6.141202e-001	8:-1.767472e-001	9:-5.747154e-001	10:2.723522e-001	11:3.539572e-001	12:4.140319e-001
1.578361e+001	1:2.748604e-001	2:3.051413e-001	3:1.766241e-001	4:-3.887875e-002	5:-2.731324e-001	6:-7.261302e-001	7:-8.349069e-001	8:-2.678601e-001	9:-5.775851e-001	10:2.475039e-001	11:3.545614e-001	12:4.679050e-001
1.578361e+001	1:2.629782e-001	2:6.365158e-002	3:2.051913e-001	4:-1.277860e-001	5:-2.136036e-001	6:-8.254245e-001	7:-8.481662e-001	8:-1.847976e-001	9:-5.309977e-001	10:2.296586e-001	11:3.330780e-001	12:4.210792e-001
1.578361e+001	1:-8.160552e-002	2:1.481730e-001	3:2.416938e-001	4:-1.151908e-001	5:-2.118197e-001	6:-7.196950e-001	7:-9.172364e-001	8:-2.537883e-001	9:-5.496480e-001	10:2.673668e-001	11:3.514123e-001	12:4.648901e-001
1.578361e+001	1:1.441562e-001	2:1.843964e-001	3:2.226490e-001	4:-2.361526e-002	5:-1.998240e-001	6:-8.337812e-001	7:-6.293047e-001	8:-2.013666e-001	9:-5.856199e-001	10:2.879347e-001	11:3.416152e-001	12:4.379131e-001
1.578361e+001	1:1.679206e-001	2:2.447688e-001	3:1.655146e-001	4:-9.431778e-002	5:-2.510964e-001	6:-7.971650e-001	7:-6.387416e-001	8:-2.588333e-001	9:-6.108872e-001	10:2.508052e-001	11:3.585297e-001	12:5.022902e-001
1.578361e+001	1:-1.031234e-002	2:1.119495e-001	3:2.432809e-001	4:-6.982143e-002	5:-1.941567e-001	6:-7.645746e-001	7:-6.520505e-001	8:-2.813469e-001	9:-6.086817e-001	10:2.763368e-001	11:3.604017e-001	12:4.775212e-001
2.637565e+000	1:1.085096e-001	2:3.172157e-001	3:2.337585e-001	4:-1.044561e-002	5:-1.835702e-001	6:-8.056352e-001	7:-6.581144e-001	8:-1.845913e-001	9:-5.766742e-001	10:2.705454e-001	11:3.534942e-001	12:4.487147e-001
1.578361e+001	1:1.203918e-001	2:1.723219e-001	3:2.686740e-001	4:1.722257e-002	5:-1.765486e-001	6:-8.643699e-001	7:-4.603771e-001	8:-5.800214e-002	9:-4.381980e-001	10:2.035764e-001	11:3.088123e-001	12:4.096435e-001
1.578361e+001	1:3.342714e-001	2:2.930668e-001	3:2.528033e-001	4:-8.248730e-002	5:-2.985250e-001	6:-8.847282e-001	7:-3.760810e-001	8:-4.448038e-002	9:-3.242982e-001	10:2.389021e-001	11:3.662906e-001	12:4.870753e-001
1.578361e+001	1:3.818002e-001	2:3.292902e-001	3:2.813705e-001	4:-8.711024e-002	5:-5.160998e-001	6:-1.019970e+000	7:-8.369937e-001	8:-2.611624e-001	9:-5.209420e-001	10:2.588681e-001	11:3.526268e-001	12:4.341890e-001
1.578361e+001	1:3.223892e-001	2:3.051413e-001	3:2.797835e-001	4:-9.566635e-002	5:-2.919115e-001	6:-8.486452e-001	7:-7.742834e-001	8:-2.623920e-001	9:-4.887963e-001	10:2.686009e-001	11:3.970895e-001	12:4.801146e-001
1.578361e+001	1:2.986248e-001	2:2.930668e-001	3:3.099377e-001	4:-5.225861e-002	5:-4.768790e-001	6:-9.605332e-001	7:-6.142331e-001	8:-1.954074e-001	9:-5.114620e-001	10:2.671728e-001	11:3.556704e-001	12:4.688102e-001
1.578361e+001	1:1.560384e-001	2:2.930668e-001	3:3.020024e-001	4:-1.364730e-001	5:-2.324351e-001	6:-8.224318e-001	7:-7.397405e-001	8:-2.173831e-001	9:-5.849779e-001	10:2.564256e-001	11:3.218918e-001	12:4.496907e-001
1.578361e+001	1:2.986248e-001	2:2.689178e-001	3:2.575645e-001	4:-1.296557e-001	5:-2.044781e-001	6:-7.803015e-001	7:-6.739768e-001	8:-1.427944e-001	9:-5.138571e-001	10:2.315843e-001	11:3.440757e-001	12:4.633335e-001
1.578361e+001	1:2.629782e-001	2:9.987504e-002	3:2.908929e-001	4:-1.923312e-001	5:-2.803529e-001	6:-8.985433e-001	7:-2.746730e-001	8:8.851820e-002	9:-2.974186e-001	10:2.185702e-001	11:3.173223e-001	12:4.026093e-001
1.578361e+001	1:1.322740e-001	2:1.481730e-001	3:3.131119e-001	4:-6.212093e-002	5:-2.021876e-001	6:-8.327450e-001	7:-6.608251e-001	8:-2.258117e-001	9:-5.723576e-001	10:2.317956e-001	11:3.757749e-001	12:4.671422e-001
1.578361e+001	1:1.441562e-001	2:1.723219e-001	3:2.797835e-001	4:1.226188e-002	5:-1.949557e-001	6:-8.151729e-001	7:-6.694633e-001	8:-1.515147e-001	9:-5.303593e-001	10:2.695362e-001	11:3.402350e-001	12:4.434521e-001
1.578361e+001	1:2.867426e-001	2:1.119495e-001	3:2.718481e-001	4:-1.956452e-001	5:-3.862158e-001	6:-9.175588e-001	7:-4.809010e-001	8:-9.531869e-002	9:-3.293161e-001	10:2.526366e-001	11:3.401172e-001	12:4.264344e-001
1.578361e+001	1:1.085096e-001	2:6.365158e-002	3:2.813705e-001	4:-4.237186e-002	5:-1.672039e-001	6:-7.742993e-001	7:-8.937549e-001	8:-3.194385e-001	9:-6.055847e-001	10:2.688725e-001	11:3.740279e-001	12:4.750666e-001
1.578361e+001	1:6.098085e-002	2:9.987504e-002	3:3.035895e-001	4:-8.987804e-003	5:-1.364223e-001	6:-7.202863e-001	7:-9.179973e-001	8:-2.496975e-001	9:-5.421080e-001	10:2.371823e-001	11:3.448912e-001	12:4.646604e-001
1.578361e+001	1:3.342714e-001	2:1.723219e-001	3:2.591516e-001	4:-6.285040e-002	5:-2.979759e-001	6:-8.951897e-001	7:-5.708541e-001	8:-2.209642e-001	9:-5.820527e-001	10:2.954480e-001	11:3.601409e-001	12:4.608045e-001
1.578361e+001	1:1.679206e-001	2:3.950262e-002	3:3.004153e-001	4:-9.856111e-002	5:-4.839065e-001	6:-9.510763e-001	7:-5.290650e-001	8:-2.396956e-001	9:-5.199687e-001	10:2.567271e-001	11:3.778280e-001	12:4.735811e-001
1.578361e+001	1:3.721645e-002	2:9.987504e-002	3:3.067636e-001	4:-7.583912e-002	5:-1.745085e-001	6:-7.582220e-001	7:-7.555162e-001	8:-2.957446e-001	9:-6.042638e-001	10:2.526035e-001	11:3.728941e-001	12:4.729686e-001
1.578361e+001	1:9.662744e-002	2:1.843964e-001	3:2.813705e-001	4:7.741045e-002	5:-1.080108e-001	6:-8.381563e-001	7:-6.499745e-001	8:-2.850357e-002	9:-3.067727e-001	10:2.417391e-001	11:3.294038e-001	12:4.118404e-001
1.578361e+001	1:4.055646e-001	2:3.051413e-001	3:2.337585e-001	4:4.918335e-002	5:-2.014424e-001	6:-7.732715e-001	7:-8.127856e-001	8:-2.289217e-001	9:-4.326030e-001	10:2.484345e-001	11:3.860471e-001	12:5.038219e-001
1.578361e+001	1:2.986248e-001	2:1.360985e-001	3:2.623257e-001	4:6.277406e-002	5:-1.891531e-001	6:-8.337784e-001	7:-7.247237e-001	8:-2.016378e-001	9:-5.640873e-001	10:2.666753e-001	11:3.484059e-001	12:4.587057e-001
1.578361e+001	1:1.560384e-001	2:1.535365e-002	3:3.067636e-001	4:-1.017365e-001	5:-5.047411e-001	6:-1.022715e+000	7:-6.960160e-001	8:-3.507746e-001	9:-6.029562e-001	10:2.469260e-001	11:3.548757e-001	12:4.334850e-001
1.578361e+001	1:2.986248e-001	2:3.775882e-001	3:2.464550e-001	4:3.285399e-002	5:-1.916618e-001	6:-7.867674e-001	7:-7.258216e-001	8:-2.233514e-001	9:-4.768164e-001	10:2.741605e-001	11:3.911094e-001	12:4.852896e-001
1.578361e+001	1:3.699180e-001	2:1.240240e-001	3:2.877188e-001	4:-4.518720e-003	5:-1.754458e-001	6:-8.227796e-001	7:-7.266627e-001	8:-1.601125e-001	9:-5.512344e-001	10:2.636085e-001	11:3.050669e-001	12:4.453090e-001
1.578361e+001	1:2.273316e-001	2:3.292902e-001	3:2.591516e-001	4:-1.311959e-001	5:-6.886657e-001	6:-9.882923e-001	7:-4.166813e-001	8:-6.343450e-002	9:-3.109847e-001	10:2.852071e-001	11:3.413517e-001	12:4.392946e-001
1.578361e+001	1:1.798028e-001	2:1.843964e-001	3:2.623257e-001	4:-4.507679e-002	5:-3.400493e-001	6:-9.560441e-001	7:-6.784370e-001	8:-1.800941e-001	9:-4.401094e-001	10:2.451759e-001	11:3.278660e-001	12:4.356142e-001
1.578361e+001	1:1.798028e-001	2:3.950262e-002	3:1.052060e-001	4:-1.001148e-001	5:-3.244838e-001	6:-7.773629e-001	7:-8.510024e-001	8:-3.450448e-001	9:-6.079937e-001	10:2.587978e-001	11:3.664500e-001	12:4.740029e-001
1.578361e+001	1:8.808525e-001	2:1.360985e-001	3:1.369474e-001	4:-1.047327e-001	5:-1.702927e-001	6:-6.911833e-001	7:-7.503667e-001	8:-2.536482e-001	9:-5.782960e-001	10:2.789724e-001	11:3.976588e-001	12:4.971688e-001
1.578361e+001	1:1.560384e-001	2:1.602475e-001	3:2.702610e-001	4:-9.016480e-002	5:-6.027312e-001	6:-9.730327e-001	7:-5.910074e-001	8:-2.073621e-001	9:-5.854978e-001	10:2.799111e-001	11:3.556392e-001	12:4.549152e-001
1.578361e+001	1:1.798028e-001	2:1.360985e-001	3:1.417086e-001	4:-1.584767e-001	5:-2.127061e-001	6:-8.135775e-001	7:-8.115753e-001	8:-2.626559e-001	9:-4.570262e-001	10:2.756285e-001	11:3.788256e-001	12:4.848936e-001
1.578361e+001	1:2.510960e-001	2:2.206199e-001	3:1.861465e-001	4:-1.188557e-002	5:-3.082205e-001	6:-8.096725e-001	7:-7.247810e-001	8:-2.594884e-001	9:-5.213881e-001	10:2.626772e-001	11:3.569779e-001	12:4.664078e-001
1.578361e+001	1:2.392138e-001	2:8.780055e-002	3:2.337585e-001	4:-3.141832e-002	5:-1.799724e-001	6:-8.041846e-001	7:-7.937948e-001	8:-1.700573e-001	9:-5.278066e-001	10:2.418781e-001	11:2.975588e-001	12:4.343136e-001
1.578361e+001	1:8.474524e-002	2:9.987504e-002	3:2.766093e-001	4:-1.295705e-001	5:-3.027278e-001	6:-9.123773e-001	7:-5.731739e-001	8:-9.612057e-002	9:-3.556979e-001	10:2.914260e-001	11:3.928798e-001	12:4.512700e-001
1.578361e+001	1:1.441562e-001	2:2.809923e-001	3:2.401068e-001	4:-4.533621e-002	5:-2.834505e-001	6:-8.828803e-001	7:-5.961710e-001	8:-2.060437e-001	9:-5.859881e-001	10:2.662424e-001	11:3.409031e-001	12:4.611243e-001
1.578361e+001	1:2.035672e-001	2:2.447688e-001	3:2.289973e-001	4:-4.165925e-002	5:-4.645342e-001	6:-9.112425e-001	7:-5.363194e-002	8:2.442146e-001	9:4.591429e-001	10:2.064507e-001	11:3.402193e-001	12:4.272423e-001
1.578361e+001	1:2.392138e-001	2:2.206199e-001	3:1.877335e-001	4:-3.460930e-002	5:-4.234148e-001	6:-9.124794e-001	7:-3.150564e-001	8:-2.359520e-002	9:6.979764e-002	10:2.529323e-001	11:3.601145e-001	12:4.660400e-001
1.578361e+001	1:2.392138e-001	2:2.930668e-001	3:1.956689e-001	4:1.742677e-002	5:-2.136820e-001	6:-8.549590e-001	7:-6.110806e-001	8:-1.271800e-001	9:-5.326671e-001	10:1.723210e-001	11:3.339063e-001	12:4.356951e-001
1.578361e+001	1:7.286304e-002	2:-4.501877e-002	3:2.448680e-001	4:-1.301958e-001	5:-1.885353e-001	6:-8.396688e-001	7:-6.709335e-001	8:-2.898193e-001	9:-6.013052e-001	10:2.790509e-001	11:3.485646e-001	12:4.753916e-001
1.578361e+001	1:3.223892e-001	2:2.568433e-001	3:1.813853e-001	4:-3.494607e-002	5:-2.308731e-001	6:-8.497818e-001	7:-7.633548e-001	8:-1.805798e-001	9:-4.395978e-001	10:2.420809e-001	11:3.571684e-001	12:4.918265e-001
1.578361e+001	1:2.510960e-001	2:2.689178e-001	3:1.861465e-001	4:2.807515e-002	5:-1.805993e-001	6:-7.882821e-001	7:-7.886824e-001	8:-1.572768e-001	9:-4.658293e-001	10:2.804133e-001	11:3.933905e-001	12:5.084982e-001
1.578361e+001	1:1.560384e-001	2:5.157710e-002	3:2.416938e-001	4:-5.786679e-002	5:-5.265796e-001	6:-9.971092e-001	7:-7.400791e-001	8:-2.729713e-001	9:-5.984536e-001	10:2.740776e-001	11:3.762274e-001	12:4.795706e-001
1.578361e+001	1:4.909865e-002	2:3.950262e-002	3:2.718481e-001	4:-3.331385e-002	5:-2.243462e-001	6:-8.343845e-001	7:-6.613585e-001	8:-3.085728e-001	9:-5.983989e-001	10:2.634066e-001	11:3.608078e-001	12:4.728245e-001
1.578361e+001	1:1.085096e-001	2:2.568433e-001	3:2.226490e-001	4:-9.682300e-002	5:-2.301059e-001	6:-8.567384e-001	7:-7.721246e-001	8:-1.184596e-001	9:-4.741460e-001	10:2.600624e-001	11:3.475874e-001	12:4.556620e-001
1.578361e+001	1:1.560384e-001	2:5.157710e-002	3:2.178878e-001	4:-8.684024e-002	5:-3.135910e-001	6:-9.526269e-001	7:-7.420419e-001	8:-2.114377e-001	9:-4.955527e-001	10:2.801988e-001	11:3.468394e-001	12:4.697364e-001
1.578361e+001	1:1.322740e-001	2:8.780055e-002	3:5.759401e-002	4:-2.081283e-002	5:-2.763173e-001	6:-8.823484e-001	7:-6.155994e-001	8:-2.572413e-001	9:-5.877928e-001	10:2.338701e-001	11:3.757036e-001	12:5.188075e-001
1.578361e+001	1:8.474524e-002	2:3.950262e-002	3:6.394228e-002	4:-1.475923e-002	5:-5.525364e-001	6:-8.926136e-001	7:-4.048453e-001	8:-1.969908e-001	9:-4.209961e-001	10:2.275228e-001	11:3.600666e-001	12:4.759266e-001
1.578361e+001	1:-1.172521e-001	2:-1.053912e-001	3:4.807161e-002	4:-9.085152e-002	5:-1.653779e-001	6:-7.810658e-001	7:-9.068294e-001	8:-2.925742e-001	9:-6.096640e-001	10:2.289761e-001	11:3.428762e-001	12:4.568266e-001
1.578361e+001	1:-1.053699e-001	2:-9.331671e-002	3:2.902680e-002	4:-1.780171e-002	5:-2.129933e-001	6:-7.849101e-001	7:-7.611563e-001	8:-3.449825e-001	9:-6.624918e-001	10:2.126621e-001	11:3.001515e-001	12:4.120844e-001
1.578361e+001	1:9.662744e-002	2:9.987504e-002	3:-1.127484e-003	4:-9.175008e-002	5:-2.537060e-001	6:-8.488335e-001	7:-7.345409e-001	8:-1.804549e-001	9:-5.293693e-001	10:2.295192e-001	11:3.359984e-001	12:4.375616e-001
1.578361e+001	1:-3.407673e-002	2:5.157710e-002	3:4.013627e-002	4:3.659757e-002	5:-2.178578e-001	6:-7.747026e-001	7:-8.660685e-001	8:-2.401061e-001	9:-5.877027e-001	10:2.606257e-001	11:3.932966e-001	12:4.595959e-001
1.578361e+001	1:1.345206e-002	2:2.742813e-002	3:1.401215e-001	4:-8.716042e-002	5:-2.436742e-001	6:-7.853099e-001	7:-8.286379e-001	8:-4.056034e-001	9:-6.580954e-001	10:2.677493e-001	11:3.546663e-001	12:4.370229e-001
1.578361e+001	1:3.223892e-001	2:3.292902e-001	3:1.829723e-001	4:-1.508380e-001	5:-2.480333e-001	6:-8.504625e-001	7:-8.079951e-001	8:-3.013120e-001	9:-5.231811e-001	10:2.078412e-001	11:3.651017e-001	12:4.513959e-001
1.578361e+001	1:3.223892e-001	2:2.085454e-001	3:2.274102e-001	4:-7.559616e-002	5:-5.811323e-001	6:-1.035783e+000	7:-9.075340e-001	8:-3.081241e-001	9:-5.050587e-001	10:2.536534e-001	11:3.513973e-001	12:4.919544e-001
1.578361e+001	1:2.035672e-001	2:6.365158e-002	3:2.845447e-001	4:-3.212098e-002	5:-2.197283e-001	6:-7.670272e-001	7:-1.036954e+000	8:-3.360611e-001	9:-6.260688e-001	10:1.861513e-001	11:2.857333e-001	12:4.059104e-001
1.578361e+001	1:4.412112e-001	2:4.017371e-001	3:2.924800e-001	4:-5.285221e-002	5:-6.035528e-001	6:-1.060284e+000	7:-7.609801e-001	8:-3.150418e-001	9:-4.021368e-001	10:2.345175e-001	11:3.425921e-001	12:4.622645e-001
1.578361e+001	1:3.223892e-001	2:9.987504e-002	3:3.273955e-001	4:-8.921669e-002	5:-2.794901e-001	6:-8.463010e-001	7:-7.237956e-001	8:-2.261873e-001	9:-4.814400e-001	10:1.658545e-001	11:3.087732e-001	12:4.539012e-001
1.578361e+001	1:1.560384e-001	2:1.602475e-001	3:2.845447e-001	4:-1.078506e-001	5:-5.761536e-001	6:-1.082044e+000	7:-7.937534e-001	8:-2.709585e-001	9:-3.979589e-001	10:1.947444e-001	11:3.004894e-001	12:4.275113e-001
1.578361e+001	1:3.936824e-001	2:3.292902e-001	3:1.893206e-001	4:-1.453016e-001	5:-2.319154e-001	6:-8.405318e-001	7:-6.727834e-001	8:-3.123002e-001	9:-6.196485e-001	10:2.440247e-001	11:3.558958e-001	12:4.619097e-001
1.578361e+001	1:9.662744e-002	2:1.119495e-001	3:2.083654e-001	4:-3.513244e-002	5:-5.658744e-001	6:-1.016412e+000	7:-5.473070e-001	8:-1.908643e-001	9:-4.551553e-001	10:2.542983e-001	11:3.836899e-001	12:4.952724e-001
1.578361e+001	1:-4.595893e-002	2:-8.124222e-002	3:1.036190e-001	4:-1.038829e-001	5:-2.355308e-001	6:-7.822233e-001	7:-8.652000e-001	8:-3.769330e-001	9:-6.698753e-001	10:2.231874e-001	11:3.487676e-001	12:4.660788e-001
1.578361e+001	1:-8.160552e-002	2:2.742813e-002	3:-5.826191e-002	4:-1.465022e-002	5:-2.363971e-001	6:-8.012431e-001	7:-9.225476e-001	8:-3.052694e-001	9:-5.845087e-001	10:2.589659e-001	11:3.586487e-001	12:4.840028e-001
1.578361e+001	1:1.322740e-001	2:1.602475e-001	3:8.394921e-003	4:-1.321079e-001	5:-1.876792e-001	6:-7.088965e-001	7:-8.912035e-001	8:-2.873851e-001	9:-5.889565e-001	10:1.920761e-001	11:3.006517e-001	12:4.459294e-001
1.578361e+001	1:1.560384e-001	2:1.481730e-001	3:-1.858523e-002	4:-4.697234e-002	5:-2.552405e-001	6:-8.112875e-001	7:-8.783452e-001	8:-2.940381e-001	9:-6.262174e-001	10:2.245620e-001	11:3.000537e-001	12:3.835443e-001
1.578361e+001	1:-2.219454e-002	2:-2.019871e-001	3:-3.604297e-002	4:-1.422754e-001	5:-5.659465e-001	6:-8.680672e-001	7:-6.232275e-001	8:-1.028030e-001	9:-5.109503e-001	10:2.281877e-001	11:2.442591e-001	12:4.607173e-001
1.578361e+001	1:-2.004275e-001	2:-5.709326e-002	3:-8.206792e-002	4:3.617406e-001	5:1.178030e-002	6:-6.608158e-001	7:-7.575205e-001	8:-1.762928e-001	9:-5.337238e-001	10:2.751864e-001	11:3.438642e-001	12:4.740629e-001
1.578361e+001	1:-5.784113e-002	2:1.481730e-001	3:-1.439636e-001	4:-3.745988e-002	5:-5.606271e-001	6:-8.248794e-001	7:-4.932009e-001	8:-1.121484e-001	9:-1.791882e-001	10:2.822033e-001	11:3.945858e-001	12:5.141736e-001
1.578361e+001	1:2.533425e-002	2:-2.140615e-001	3:-1.852273e-001	4:2.442801e-002	5:-4.880946e-001	6:-7.538340e-001	7:-7.529560e-001	8:-1.854516e-001	9:-5.079506e-001	10:2.804802e-001	11:3.492789e-001	12:4.548044e-001
1.578361e+001	1:-3.192495e-001	2:-3.227319e-001	3:-2.312523e-001	4:-2.332860e-002	5:-2.153303e-001	6:-7.829680e-001	7:-6.965118e-001	8:-2.236042e-001	9:-6.349917e-001	10:2.106041e-001	11:3.188720e-001	12:4.053218e-001
1.578361e+001	1:-3.192495e-001	2:-2.623595e-001	3:-2.598195e-001	4:-5.057412e-002	5:-5.155451e-001	6:-1.043377e+000	7:-7.433852e-001	8:-1.787087e-001	9:-4.701723e-001	10:3.007969e-001	11:3.937596e-001	12:4.550333e-001
1.578361e+001	1:-2.598385e-001	2:-2.865084e-001	3:-2.915608e-001	4:-5.584714e-002	5:-1.576667e-001	6:-7.345668e-001	7:-7.684205e-001	8:-1.622450e-001	9:-4.699981e-001	10:2.655452e-001	11:3.415846e-001	12:4.584745e-001
1.578361e+001	1:-2.241919e-001	2:-1.174657e-001	3:-3.201280e-001	4:1.153474e-002	5:-1.087038e-001	6:-7.609515e-001	7:-8.578164e-001	8:-2.510201e-001	9:-5.304741e-001	10:2.445399e-001	11:3.637811e-001	12:4.422588e-001
1.578361e+001	1:-6.972333e-002	2:-2.140615e-001	3:-3.090186e-001	4:7.452117e-002	5:-1.313912e-001	6:-7.680455e-001	7:-5.854615e-001	8:-1.602190e-001	9:-5.152133e-001	10:2.547242e-001	11:3.092052e-001	12:4.036239e-001
1.578361e+001	1:-2.123097e-001	2:-3.468809e-001	3:-2.820384e-001	4:-3.416197e-002	5:-3.214031e-001	6:-8.242075e-001	7:-5.965127e-001	8:-2.771779e-001	9:-6.505590e-001	10:2.438456e-001	11:3.067324e-001	12:3.763370e-001
1.578361e+001	1:-2.717207e-001	2:-3.348064e-001	3:-2.439488e-001	4:-4.908775e-002	5:-1.654968e-001	6:-6.973229e-001	7:-6.586926e-001	8:-2.278330e-001	9:-6.195846e-001	10:2.637904e-001	11:3.234790e-001	12:3.991739e-001
1.578361e+001	1:-3.311317e-001	2:-2.261360e-001	3:-2.455359e-001	4:-5.680370e-002	5:-2.096340e-001	6:-7.762590e-001	7:-7.847247e-001	8:-2.993594e-001	9:-6.706157e-001	10:1.862983e-001	11:2.262708e-001	12:3.036087e-001
1.578361e+001	1:-5.784113e-002	2:-6.916774e-002	3:-2.502971e-001	4:-1.205625e-001	5:-2.038536e-001	6:-8.009845e-001	7:-6.850945e-001	8:-1.708616e-001	9:-4.500371e-001	10:2.548573e-001	11:3.434267e-001	12:4.950143e-001
1.578361e+001	1:-3.407673e-002	2:-2.865084e-001	3:-1.518989e-001	4:7.006399e-002	5:-1.185451e-001	6:-6.639150e-001	7:-8.063514e-001	8:-3.250022e-001	9:-5.656205e-001	10:2.064180e-001	11:2.904241e-001	12:3.496127e-001
1.578361e+001	1:1.441562e-001	2:3.950262e-002	3:-4.397830e-002	4:-1.301761e-001	5:-2.278221e-001	6:-7.704367e-001	7:-8.464518e-001	8:-3.205459e-001	9:-5.639204e-001	10:2.278114e-001	11:3.171012e-001	12:3.768507e-001
1.578361e+001	1:-9.348772e-002	2:-6.916774e-002	3:5.283281e-002	4:-1.782206e-002	5:-2.039888e-001	6:-7.287556e-001	7:-9.263093e-001	8:-3.060455e-001	9:-6.446389e-001	10:2.040579e-001	11:2.520164e-001	12:3.848162e-001
1.578361e+001	1:-6.972333e-002	2:2.742813e-002	3:8.140002e-002	4:-1.432899e-001	5:-2.246651e-001	6:-7.264593e-001	7:-9.467154e-001	8:-3.167904e-001	9:-5.299064e-001	10:1.135394e-001	11:3.068433e-001	12:4.283973e-001
1.578361e+001	1:2.533425e-002	2:3.950262e-002	3:9.568363e-002	4:-7.723387e-002	5:-2.277498e-001	6:-7.612390e-001	7:-8.104327e-001	8:-4.292600e-001	9:-7.018489e-001	10:1.804745e-001	11:2.869246e-001	12:3.834361e-001
1.578361e+001	1:3.721645e-002	2:2.742813e-002	3:7.505175e-002	4:-5.143637e-002	5:-4.860136e-001	6:-9.489542e-001	7:-6.710078e-001	8:-3.162682e-001	9:-6.164175e-001	10:2.421849e-001	11:3.034869e-001	12:4.236336e-001
1.578361e+001	1:2.035672e-001	2:1.602475e-001	3:1.147284e-001	4:-8.634436e-002	5:-3.641066e-001	6:-8.793748e-001	7:-5.391201e-001	8:-1.037620e-001	9:-1.125908e-001	10:1.585771e-001	11:3.226589e-001	12:4.182516e-001
1.578361e+001	1:-1.031234e-002	2:-8.795319e-003	3:1.639275e-001	4:-1.368321e-001	5:-2.275973e-001	6:-7.724645e-001	7:-7.920094e-001	8:-4.718761e-001	9:-6.764134e-001	10:1.875116e-001	11:2.764717e-001	12:4.063667e-001
1.578361e+001	1:1.916850e-001	2:2.447688e-001	3:4.648454e-002	4:-6.914592e-002	5:-3.929896e-001	6:-9.515638e-001	7:-2.715074e-001	8:-7.503406e-002	9:-2.970251e-002	10:1.590913e-001	11:3.137396e-001	12:4.674301e-001
1.578361e+001	1:2.392138e-001	2:6.365158e-002	3:1.950439e-002	4:-3.933161e-002	5:-2.439632e-001	6:-8.349141e-001	7:-7.353664e-001	8:-3.292854e-001	9:-6.236535e-001	10:1.945228e-001	11:3.033827e-001	12:4.369041e-001
1.578361e+001	1:-1.885453e-001	2:-2.140615e-001	3:-9.317739e-002	4:-1.804128e-001	5:-3.061004e-001	6:-8.830434e-001	7:-2.764323e-001	8:-8.642588e-002	9:-4.114267e-001	10:2.123419e-001	11:3.171345e-001	12:4.023515e-001
1.578361e+001	1:-1.647809e-001	2:-2.623595e-001	3:-2.614065e-001	4:-4.158872e-002	5:-3.278096e-001	6:-9.588845e-001	7:-7.567067e-001	8:-3.163888e-001	9:-5.053269e-001	10:2.312151e-001	11:3.334296e-001	12:4.567415e-001
1.578361e+001	1:-2.598385e-001	2:-3.227319e-001	3:-2.423617e-001	4:-1.588563e-001	5:-2.010058e-001	6:-7.445059e-001	7:-7.897774e-001	8:-4.504212e-001	9:-7.132364e-001	10:2.100486e-001	11:2.899004e-001	12:3.744588e-001
1.578361e+001	1:-2.123097e-001	2:-1.899126e-001	3:-2.106204e-001	4:9.573421e-003	5:-3.802753e-001	6:-9.338647e-001	7:-8.882918e-001	8:-3.803454e-001	9:-6.313088e-001	10:2.412626e-001	11:3.181926e-001	12:4.451103e-001
1.578361e+001	1:-1.885453e-001	2:-6.916774e-002	3:-2.058592e-001	4:1.048131e-002	5:-4.715024e-001	6:-8.539674e-001	7:-6.728988e-001	8:-2.845993e-001	9:-6.166779e-001	10:2.741178e-001	11:3.842539e-001	12:4.993360e-001
1.578361e+001	1:-6.972333e-002	2:-2.086980e-002	3:-2.058592e-001	4:-7.342063e-002	5:-1.675773e-001	6:-7.462733e-001	7:-8.842065e-001	8:-2.764535e-001	9:-5.320300e-001	10:2.365742e-001	11:3.151785e-001	12:4.134113e-001
1.578361e+001	1:2.533425e-002	2:-8.124222e-002	3:-1.392023e-001	4:-1.408857e-001	5:-2.417639e-001	6:-7.907678e-001	7:-9.024857e-001	8:-3.268174e-001	9:-5.879455e-001	10:2.212834e-001	11:3.493917e-001	12:4.330646e-001
1.578361e+001	1:-8.160552e-002	2:-1.295402e-001	3:-8.682912e-002	4:-1.439546e-001	5:-2.287938e-001	6:-6.368724e-001	7:-9.218867e-001	8:-2.351063e-001	9:-5.369456e-001	10:2.833662e-001	11:3.778510e-001	12:4.981005e-001
1.578361e+001	1:-2.598385e-001	2:-1.053912e-001	3:-5.350071e-002	4:-1.531414e-001	5:-1.843338e-001	6:-6.800996e-001	7:-9.494174e-001	8:-4.136323e-001	9:-5.830080e-001	10:2.276610e-001	11:2.967054e-001	12:4.007188e-001
1.578361e+001	1:-2.219454e-002	2:-1.174657e-001	3:-3.286883e-002	4:-8.874525e-002	5:-1.612046e-001	6:-7.944149e-001	7:-6.538506e-001	8:-2.365440e-001	9:-6.792598e-001	10:2.039124e-001	11:3.095453e-001	12:4.145681e-001
1.578361e+001	1:1.322740e-001	2:8.780055e-002	3:-3.763003e-002	4:-7.372197e-002	5:-3.700782e-001	6:-9.012247e-001	7:-3.531651e-001	8:3.683971e-002	9:-6.432987e-002	10:2.009021e-001	11:3.739127e-001	12:4.726276e-001
1.578361e+001	1:8.474524e-002	2:3.950262e-002	3:-2.652056e-002	4:-1.388586e-001	5:-2.057633e-001	6:-7.518624e-001	7:-7.471430e-001	8:-1.806700e-001	9:-5.361674e-001	10:1.486359e-001	11:3.705397e-001	12:4.821120e-001
1.578361e+001	1:1.916850e-001	2:-3.294429e-002	3:-4.301618e-003	4:-5.951354e-002	5:-2.961146e-001	6:-8.284876e-001	7:-1.222012e-001	8:1.965959e-002	9:-2.753832e-001	10:1.964161e-001	11:2.921927e-001	12:3.831743e-001
1.578361e+001	1:-1.647809e-001	2:-4.501877e-002	3:4.489747e-002	4:-1.345291e-001	5:-2.443483e-001	6:-7.456299e-001	7:-7.136027e-001	8:-2.792792e-001	9:-6.707396e-001	10:2.285148e-001	11:3.180736e-001	12:4.149001e-001
1.578361e+001	1:-4.595893e-002	2:-6.916774e-002	3:5.283281e-002	4:-7.416734e-002	5:-2.322845e-001	6:-8.004896e-001	7:-8.939887e-001	8:-2.437914e-001	9:-5.702389e-001	10:2.093605e-001	11:3.226474e-001	12:4.445760e-001
1.578361e+001	1:-6.972333e-002	2:1.119495e-001	3:3.061386e-002	4:-1.279080e-001	5:-2.479454e-001	6:-7.963705e-001	7:-8.267674e-001	8:-2.490263e-001	9:-6.262270e-001	10:2.391952e-001	11:3.365142e-001	12:4.331456e-001
1.578361e+001	1:6.098085e-002	2:1.535365e-002	3:8.394921e-003	4:-1.347478e-001	5:-2.794081e-001	6:-8.481243e-001	7:-7.702787e-001	8:-2.664126e-001	9:-7.046587e-001	10:2.196355e-001	11:3.417451e-001	12:4.135473e-001
1.578361e+001	1:-6.972333e-002	2:3.279164e-003	3:6.394228e-002	4:-2.212220e-002	5:-2.436546e-001	6:-8.328424e-001	7:-6.282718e-001	8:-2.689955e-001	9:-6.592944e-001	10:2.238055e-001	11:3.729653e-001	12:4.762420e-001
1.578361e+001	1:1.569858e-003	2:-6.916774e-002	3:4.965867e-002	4:-1.872812e-002	5:-1.963125e-001	6:-7.602695e-001	7:-8.052037e-001	8:-2.291062e-001	9:-5.904070e-001	10:2.138254e-001	11:3.284889e-001	12:4.208208e-001
1.578361e+001	1:-6.972333e-002	2:-1.053912e-001	3:5.220786e-003	4:-8.164421e-002	5:-1.981750e-001	6:-7.273722e-001	7:-8.881214e-001	8:-3.058915e-001	9:-6.869815e-001	10:2.079137e-001	11:3.011960e-001	12:3.922816e-001
1.578361e+001	1:2.392138e-001	2:3.279164e-003	3:-8.524206e-002	4:5.623126e-002	5:-2.808292e-001	6:-8.689551e-001	7:-5.276182e-001	8:-1.643329e-001	9:-5.234311e-001	10:1.848542e-001	11:3.104592e-001	12:4.333458e-001
1.578361e+001	1:1.569858e-003	2:-1.174657e-001	3:-1.090481e-001	4:2.192721e-002	5:-2.327774e-001	6:-8.763643e-001	7:-5.407434e-001	8:-1.957719e-001	9:-6.520737e-001	10:1.962639e-002	11:2.936797e-001	12:4.030186e-001
1.578361e+001	1:-1.647809e-001	2:-2.865084e-001	3:-1.280929e-001	4:-1.002261e-001	5:-1.502281e-001	6:-7.687395e-001	7:-6.124044e-001	8:-2.184160e-001	9:-6.963624e-001	10:2.258184e-001	11:2.940629e-001	12:3.798643e-001
1.578361e+001	1:-2.241919e-001	2:-1.778381e-001	3:-1.931626e-001	4:-1.239066e-001	5:-3.317743e-001	6:-7.672020e-001	7:-6.775643e-001	8:-2.455797e-001	9:-6.727529e-001	10:2.322406e-001	11:3.378694e-001	12:4.094975e-001
1.578361e+001	1:-1.766631e-001	2:-1.416146e-001	3:-2.677548e-001	4:-1.440867e-001	5:-3.089310e-001	6:-8.661796e-001	7:-5.657732e-001	8:-2.759979e-002	9:-4.032954e-001	10:2.833508e-001	11:3.888607e-001	12:4.633215e-001
1.578361e+001	1:-1.410165e-001	2:-4.501877e-002	3:-3.010832e-001	4:-7.294528e-002	5:-3.687146e-001	6:-8.889475e-001	7:-6.351133e-001	8:-2.242999e-001	9:-6.308637e-001	10:2.959747e-001	11:3.741823e-001	12:4.320083e-001
1.578361e+001	1:-4.595893e-002	2:-2.502850e-001	3:-3.074315e-001	4:-1.242439e-001	5:-5.233792e-001	6:-8.176339e-001	7:-1.524630e-001	8:4.964536e-002	9:-3.049997e-001	10:1.807919e-001	11:2.769871e-001	12:3.664534e-001
1.578361e+001	1:-2.479563e-001	2:-4.314023e-001	3:-3.121927e-001	4:-4.760631e-002	5:-5.168167e-001	6:-9.715338e-001	7:-5.754269e-001	8:-8.781793e-002	9:-4.960751e-001	10:2.300721e-001	11:2.751306e-001	12:3.930640e-001
1.578361e+001	1:-2.717207e-001	2:-2.140615e-001	3:-3.883719e-001	4:-2.465358e-003	5:-1.845156e-001	6:-7.012611e-001	7:-7.027643e-001	8:-7.064384e-002	9:-4.782481e-001	10:2.259801e-001	11:3.043113e-001	12:4.024061e-001
1.578361e+001	1:-3.192495e-001	2:-3.348064e-001	3:-3.121927e-001	4:5.555269e-002	5:-2.341440e-001	6:-7.848245e-001	7:-6.120909e-001	8:-2.293698e-001	9:-7.016587e-001	10:1.909115e-001	11:2.554668e-001	12:3.673037e-001
1.578361e+001	1:-3.786605e-001	2:-1.416146e-001	3:-3.042574e-001	4:-9.574319e-002	5:-3.777498e-001	6:-8.659224e-001	7:-5.527787e-001	8:-1.335447e-001	9:-3.467508e-001	10:1.971352e-001	11:2.747318e-001	12:3.989604e-001
1.578361e+001	1:-1.410165e-001	2:-6.916774e-002	3:-2.867996e-001	4:-1.453804e-002	5:-1.852662e-001	6:-7.862607e-001	7:-8.717622e-001	8:-2.383672e-001	9:-5.562679e-001	10:2.333462e-001	11:3.072718e-001	12:3.977803e-001
1.578361e+001	1:-4.595893e-002	2:-1.416146e-001	3:-2.264911e-001	4:-4.429171e-002	5:-2.343002e-001	6:-7.736620e-001	7:-7.438084e-001	8:-4.389072e-002	9:-4.269010e-001	10:2.551099e-001	11:3.557295e-001	12:4.147229e-001
1.578361e+001	1:-1.410165e-001	2:-1.778381e-001	3:-1.931626e-001	4:2.643238e-002	5:-2.165530e-001	6:-8.033648e-001	7:-8.476945e-001	8:-2.187173e-001	9:-6.545757e-001	10:1.869766e-001	11:2.620601e-001	12:3.880073e-001
1.578361e+001	1:-9.348772e-002	2:-1.174657e-001	3:-1.122222e-001	4:-1.399477e-001	5:-2.166625e-001	6:-7.958270e-001	7:-5.996815e-001	8:-4.770035e-002	9:-4.211339e-001	10:3.544346e-002	11:2.368555e-001	12:3.266762e-001
5.235502e+000	1:-8.160552e-002	2:7.572607e-002	3:-1.487248e-001	4:2.845365e-002	5:-1.308162e-001	6:-7.811902e-001	7:-7.553838e-001	8:-1.888617e-001	9:-5.888296e-001	10:2.646013e-001	11:3.524693e-001	12:4.760573e-001
1.578361e+001	1:-8.160552e-002	2:-2.019871e-001	3:-1.534860e-001	4:1.292768e-002	5:-1.511789e-001	6:-7.768125e-001	7:-7.292800e-001	8:-1.458820e-001	9:-6.021237e-001	10:2.000885e-001	11:2.513076e-001	12:3.700208e-001
1.578361e+001	1:-1.031234e-002	2:-9.331671e-002	3:-2.010980e-001	4:-1.923932e-002	5:-3.340171e-001	6:-8.296298e-001	7:-2.943474e-001	8:-9.509308e-002	9:-3.587850e-001	10:1.839603e-001	11:2.666566e-001	12:3.560630e-001
1.578361e+001	1:-9.348772e-002	2:-9.331671e-002	3:-1.852273e-001	4:-1.184385e-002	5:-2.770746e-001	6:-8.481735e-001	7:-6.256916e-001	8:-2.446060e-001	9:-6.231257e-001	10:2.367151e-001	11:3.501118e-001	12:4.423929e-001
1.578361e+001	1:-9.348772e-002	2:-6.916774e-002	3:-1.598342e-001	4:-5.132399e-002	5:-1.497291e-001	6:-7.776245e-001	7:-8.097549e-001	8:-3.386251e-001	9:-6.581421e-001	10:1.947831e-001	11:2.769758e-001	12:3.501176e-001
1.578361e+001	1:-2.004275e-001	2:-8.124222e-002	3:-2.334643e-002	4:-1.709840e-001	5:-2.016720e-001	6:-7.833738e-001	7:-7.611374e-001	8:-3.572312e-001	9:-7.251302e-001	10:1.761287e-001	11:2.506374e-001	12:3.351440e-001
1.578361e+001	1:1.345206e-002	2:2.085454e-001	3:1.909077e-001	4:-1.996236e-001	5:-4.508973e-001	6:-9.269600e-001	7:-1.765037e-001	8:4.504818e-002	9:-9.438478e-002	10:1.100293e-001	11:3.060609e-001	12:4.181761e-001
1.578361e+001	1:2.035672e-001	2:-6.366685e-001	3:1.274250e-001	4:-1.275154e-001	5:-8.328301e-001	6:-8.275218e-001	7:-5.774893e-001	8:-3.049951e-001	9:-6.038214e-001	10:2.132350e-001	11:3.106337e-001	12:4.385406e-001
-7.318334e+000	1:-6.281866e-001	2:9.450889e-001	3:1.321862e-001	4:1.907385e-001	5:-2.868076e-001	6:-9.455958e-001	7:-7.767252e-001	8:-3.296170e-001	9:-6.112830e-001	10:2.472368e-001	11:3.483725e-001	12:4.867909e-001
1.578361e+001	1:9.283813e-001	2:2.447688e-001	3:1.353603e-001	4:-8.542832e-002	5:-1.844734e-001	6:-8.125521e-001	7:-7.360811e-001	8:-2.460466e-001	9:-5.529632e-001	10:2.635707e-001	11:3.673529e-001	12:4.190996e-001
1.578361e+001	1:2.392138e-001	2:5.157710e-002	3:1.623405e-001	4:-2.423543e-001	5:-2.923037e-001	6:-9.502624e-001	7:-4.903070e-001	8:-1.455757e-001	9:-1.868459e-001	10:2.251691e-001	11:3.032279e-001	12:3.805299e-001
1.578361e+001	1:1.679206e-001	2:8.780055e-002	3:5.124574e-002	4:-1.982398e-002	5:-2.116860e-001	6:-8.398156e-001	7:-7.003178e-001	8:-2.569293e-001	9:-5.856449e-001	10:2.279917e-001	11:3.490498e-001	12:4.774053e-001
1.578361e+001	1:8.474524e-002	2:1.535365e-002	3:7.822589e-002	4:-9.438159e-002	5:-2.939121e-001	6:-9.118089e-001	7:-5.270816e-001	8:-9.030080e-002	9:-2.384402e-001	10:2.017144e-001	11:2.736791e-001	12:3.826832e-001
1.578361e+001	1:1.345206e-002	2:-9.331671e-002	3:1.194896e-001	4:-8.926134e-002	5:-1.431807e-001	6:-7.797413e-001	7:-7.118886e-001	8:-3.353161e-001	9:-6.613650e-001	10:1.998448e-001	11:2.881378e-001	12:4.184983e-001
1.578361e+001	1:6.098085e-002	2:-6.916774e-002	3:1.156906e-002	4:1.012410e-001	5:-1.885200e-001	6:-7.914496e-001	7:-7.651519e-001	8:-1.468856e-001	9:-4.966675e-001	10:2.397033e-001	11:3.185054e-001	12:4.839478e-001
1.578361e+001	1:-6.972333e-002	2:3.279164e-003	3:-4.873951e-002	4:-8.208457e-002	5:-2.833280e-001	6:-8.933256e-001	7:-3.919615e-001	8:2.929603e-002	9:5.210779e-002	10:9.247129e-002	11:3.240664e-001	12:4.398635e-001
1.578361e+001	1:-4.595893e-002	2:-2.086980e-002	3:-1.042869e-001	4:-3.546719e-002	5:-2.675529e-001	6:-7.970622e-001	7:-6.747220e-001	8:-9.915352e-003	9:-3.075757e-001	10:2.500892e-001	11:3.918776e-001	12:4.793430e-001
1.578361e+001	1:-2.219454e-002	2:-3.294429e-002	3:-1.122222e-001	4:1.956140e-002	5:-1.973414e-001	6:-7.581803e-001	7:-7.736513e-001	8:-2.093915e-001	9:-6.520492e-001	10:2.158198e-001	11:2.986743e-001	12:4.244280e-001
1.578361e+001	1:-1.766631e-001	2:-2.382105e-001	3:-1.217446e-001	4:-1.666266e-001	5:-2.173339e-001	6:-8.652867e-001	7:-5.111809e-001	8:-2.282306e-002	9:-1.353483e-001	10:2.896737e-002	11:2.931506e-001	12:3.320844e-001
1.578361e+001	1:-2.360741e-001	2:-1.778381e-001	3:-1.265058e-001	4:-6.100807e-003	5:-1.566424e-001	6:-6.633892e-001	7:-7.168805e-001	8:-1.296542e-001	9:-5.873779e-001	10:2.636849e-001	11:3.461256e-001	12:4.360840e-001
1.578361e+001	1:-1.647809e-001	2:-8.795319e-003	3:-1.709437e-001	4:2.351168e-002	5:-1.946293e-001	6:-8.088713e-001	7:-6.445229e-001	8:-9.182702e-002	9:-5.191266e-001	10:2.449302e-001	11:3.326368e-001	12:4.879837e-001
1.578361e+001	1:-6.972333e-002	2:-3.294429e-002	3:-1.915756e-001	4:-4.734804e-002	5:-2.667618e-001	6:-8.520365e-001	7:-5.003340e-001	8:-1.465723e-001	9:-5.571357e-001	10:2.908350e-001	11:3.771524e-001	12:5.143133e-001
1.578361e+001	1:-2.598385e-001	2:-1.899126e-001	3:-1.344411e-001	4:-1.093230e-001	5:-1.915894e-001	6:-7.206447e-001	7:-9.135914e-001	8:-2.521978e-001	9:-5.982861e-001	10:2.445453e-001	11:3.457651e-001	12:4.058145e-001
1.578361e+001	1:-1.885453e-001	2:-1.778381e-001	3:-1.153963e-001	4:-1.626379e-001	5:-3.566126e-001	6:-7.949411e-001	7:-7.867039e-001	8:-1.192282e-001	9:-4.731625e-001	10:2.554477e-001	11:3.585157e-001	12:4.031871e-001
1.578361e+001	1:-1.766631e-001	2:-2.140615e-001	3:-1.122222e-001	4:-6.608450e-002	5:-2.079891e-001	6:-7.634607e-001	7:-6.734417e-001	8:-1.454493e-001	9:-6.278133e-001	10:2.486127e-001	11:3.228078e-001	12:3.763198e-001
1.578361e+001	1:-2.123097e-001	2:-5.709326e-002	3:-1.201575e-001	4:6.231618e-002	5:-2.056481e-001	6:-7.365949e-001	7:-7.042062e-001	8:-3.913580e-001	9:-5.625468e-001	10:2.363929e-001	11:2.983832e-001	12:4.309946e-001
1.578361e+001	1:-5.784113e-002	2:1.240240e-001	3:-1.106351e-001	4:-1.255165e-001	5:-2.629894e-001	6:-7.795984e-001	7:-7.975326e-001	8:-2.542617e-001	9:-4.916554e-001	10:2.583694e-001	11:3.762189e-001	12:4.436599e-001
1.578361e+001	1:1.203918e-001	2:1.360985e-001	3:-8.365499e-002	4:-1.412825e-002	5:-2.685731e-001	6:-8.310965e-001	7:-6.513935e-001	8:-9.177706e-002	9:-4.413967e-001	10:2.695780e-001	11:3.729880e-001	12:4.854372e-001
1.578361e+001	1:-4.595893e-002	2:-9.331671e-002	3:5.220786e-003	4:-1.975999e-001	5:-1.245328e-001	6:-7.098569e-001	7:-9.313513e-001	8:-2.557644e-001	9:-5.890258e-001	10:2.302586e-001	11:3.039110e-001	12:3.972571e-001
1.578361e+001	1:-6.972333e-002	2:-5.709326e-002	3:1.083802e-001	4:-3.226935e-002	5:-1.809386e-001	6:-7.581458e-001	7:-6.140619e-001	8:-1.499310e-001	9:-6.463040e-001	10:1.337476e-001	11:3.017623e-001	12:4.091226e-001
1.578361e+001	1:9.662744e-002	2:2.085454e-001	3:1.131414e-001	4:-1.260286e-001	5:-2.894622e-001	6:-8.315139e-001	7:-6.960631e-001	8:-2.429856e-001	9:-6.108461e-001	10:2.625184e-001	11:3.397353e-001	12:4.270903e-001
1.578361e+001	1:1.916850e-001	2:1.602475e-001	3:1.893206e-001	4:-5.494709e-002	5:-5.135815e-001	6:-9.110528e-001	7:-4.024936e-001	8:2.847378e-002	9:-1.571308e-001	10:2.386312e-001	11:3.171868e-001	12:4.138716e-001
1.578361e+001	1:1.560384e-001	2:1.360985e-001	3:2.623257e-001	4:-1.116755e-001	5:-2.595662e-001	6:-8.534882e-001	7:-6.975147e-001	8:-1.244807e-001	9:-5.442324e-001	10:1.205344e-001	11:2.548818e-001	12:3.494308e-001
1.578361e+001	1:1.441562e-001	2:1.360985e-001	3:3.162860e-001	4:-7.331803e-002	5:-2.084391e-001	6:-8.095609e-001	7:-7.706236e-001	8:-2.504175e-001	9:-6.299743e-001	10:2.722321e-001	11:3.195393e-001	12:4.260226e-001
1.578361e+001	1:3.721645e-002	2:1.240240e-001	3:2.940671e-001	4:6.157817e-003	5:-2.697044e-001	6:-8.531087e-001	7:-6.635714e-001	8:-1.878551e-001	9:-6.160274e-001	10:2.157367e-001	11:3.256880e-001	12:4.401517e-001
1.578361e+001	1:1.679206e-001	2:1.843964e-001	3:2.924800e-001	4:-1.286117e-002	5:-2.143272e-001	6:-7.990366e-001	7:-8.924746e-001	8:-2.184106e-001	9:-5.440507e-001	10:2.177243e-001	11:3.367024e-001	12:4.829030e-001
1.578361e+001	1:1.798028e-001	2:7.572607e-002	3:2.924800e-001	4:-1.054746e-001	5:-2.506379e-001	6:-7.942630e-001	7:-8.985206e-001	8:-3.090141e-001	9:-6.399654e-001	10:2.068854e-001	11:2.941137e-001	12:4.241106e-001
1.578361e+001	1:7.286304e-002	2:2.742813e-002	3:2.639128e-001	4:-8.082705e-002	5:-3.813940e-001	6:-9.968446e-001	7:-4.759340e-001	8:-1.137072e-001	9:-4.368832e-001	10:1.635956e-001	11:2.820232e-001	12:3.904112e-001
1.578361e+001	1:3.223892e-001	2:2.085454e-001	3:1.845594e-001	4:-4.790287e-002	5:-2.569708e-001	6:-7.991799e-001	7:-8.212736e-001	8:-2.638699e-001	9:-5.405397e-001	10:2.712907e-001	11:3.854306e-001	12:4.611198e-001
1.578361e+001	1:8.474524e-002	2:3.279164e-003	3:2.115396e-001	4:-9.828426e-002	5:-1.534475e-001	6:-7.572857e-001	7:-8.849142e-001	8:-3.022217e-001	9:-6.607996e-001	10:2.169207e-001	11:3.077228e-001	12:4.020871e-001
1.578361e+001	1:-2.219454e-002	2:3.279164e-003	3:1.337732e-001	4:-1.544971e-003	5:-1.312043e-001	6:-7.309678e-001	7:-8.035691e-001	8:-2.970937e-001	9:-6.355246e-001	10:2.930479e-001	11:3.866751e-001	12:4.289986e-001
1.578361e+001	1:9.662744e-002	2:6.365158e-002	3:5.759401e-002	4:1.298981e-001	5:-3.870985e-001	6:-9.051531e-001	7:-5.420018e-001	8:-7.062143e-002	9:-5.083999e-001	10:2.804504e-001	11:3.521348e-001	12:4.452359e-001
1.578361e+001	1:-6.972333e-002	2:-1.416146e-001	3:6.394228e-002	4:-1.559441e-001	5:-1.914630e-001	6:-7.527072e-001	7:-7.751148e-001	8:-3.666987e-001	9:-6.766623e-001	10:2.365664e-001	11:3.019247e-001	12:4.464967e-001
1.578361e+001	1:-1.291343e-001	2:-2.086980e-002	3:3.633719e-003	4:-9.292066e-002	5:-1.996397e-001	6:-7.437988e-001	7:-7.325933e-001	8:-2.052388e-001	9:-6.593350e-001	10:2.456589e-001	11:3.485545e-001	12:4.252779e-001
1.578361e+001	1:-1.172521e-001	2:-4.501877e-002	3:-2.017229e-002	4:-1.568041e-001	5:-3.839908e-001	6:-7.511459e-001	7:-2.136060e-001	8:2.073148e-003	9:-1.188030e-001	10:1.697435e-001	11:3.095415e-001	12:3.916313e-001
1.578361e+001	1:1.085096e-001	2:1.119495e-001	3:2.046651e-003	4:-7.654182e-002	5:-1.729121e-001	6:-8.584108e-001	7:-6.616285e-001	8:-1.093492e-001	9:-5.000797e-001	10:2.391525e-001	11:3.794558e-001	12:4.993528e-001
1.578361e+001	1:1.345206e-002	2:-2.086980e-002	3:1.179026e-001	4:-3.824755e-002	5:-1.884169e-001	6:-7.304904e-001	7:-8.975565e-001	8:-1.902140e-001	9:-6.177146e-001	10:1.795424e-001	11:2.915708e-001	12:3.876629e-001
1.578361e+001	1:1.345206e-002	2:2.742813e-002	3:1.020319e-001	4:-1.630997e-001	5:-1.722779e-001	6:-8.073430e-001	7:-7.171697e-001	8:-1.896844e-001	9:-6.159882e-001	10:2.509083e-001	11:3.157644e-001	12:4.193129e-001
1.578361e+001	1:2.533425e-002	2:-5.709326e-002	3:1.274250e-001	4:-1.692425e-001	5:-2.031647e-001	6:-8.589632e-001	7:-7.376223e-001	8:-1.694945e-001	9:-5.279363e-001	10:1.162722e-001	11:2.604796e-001	12:3.614296e-001
1.578361e+001	1:2.533425e-002	2:3.279164e-003	3:1.258379e-001	4:-3.948668e-002	5:-1.597736e-001	6:-8.210244e-001	7:-5.893492e-001	8:-1.405711e-001	9:-6.426545e-001	10:1.770554e-001	11:3.044743e-001	12:4.323573e-001
1.578361e+001	1:1.569858e-003	2:1.119495e-001	3:8.140002e-002	4:-1.011878e-001	5:-2.739779e-001	6:-9.150479e-001	7:-4.532985e-001	8:-6.454292e-002	9:-4.526586e-001	10:2.183333e-001	11:2.595217e-001	12:3.540542e-001
1.578361e+001	1:3.105070e-001	2:3.950262e-002	3:7.187762e-002	4:-3.996391e-004	5:-5.280240e-001	6:-9.858374e-001	7:-4.902471e-001	8:-8.758508e-002	9:-4.535880e-001	10:2.310307e-001	11:3.439131e-001	12:4.126579e-001
1.578361e+001	1:3.721645e-002	2:-4.501877e-002	3:9.250949e-002	4:-1.456028e-001	5:-2.118936e-001	6:-7.926774e-001	7:-8.273536e-001	8:-1.660253e-001	9:-5.935326e-001	10:1.790124e-001	11:2.810577e-001	12:3.593627e-001
1.578361e+001	1:-6.972333e-002	2:-3.294429e-002	3:1.210767e-001	4:-5.246653e-002	5:-2.203161e-001	6:-7.046963e-001	7:-8.456943e-001	8:-3.107641e-001	9:-6.761394e-001	10:2.056653e-001	11:3.337717e-001	12:4.192069e-001
1.578361e+001	1:1.560384e-001	2:7.572607e-002	3:7.822589e-002	4:3.411171e-002	5:-1.567191e-001	6:-8.051769e-001	7:-6.264664e-001	8:-2.409847e-001	9:-6.085486e-001	10:2.471516e-001	11:3.330306e-001	12:4.782021e-001
1.578361e+001	1:7.286304e-002	2:1.535365e-002	3:1.036190e-001	4:-1.387543e-001	5:-3.889559e-001	6:-9.395944e-001	7:-5.725414e-001	8:-2.044706e-001	9:-6.115169e-001	10:2.499421e-001	11:3.254581e-001	12:4.213321e-001
1.578361e+001	1:1.560384e-001	2:2.447688e-001	3:5.600694e-002	4:-1.441523e-001	5:-3.009146e-001	6:-8.741383e-001	7:-7.214195e-001	8:-2.632999e-001	9:-5.431168e-001	10:2.558898e-001	11:3.992436e-001	12:5.136215e-001
1.578361e+001	1:-2.219454e-002	2:5.157710e-002	3:7.981296e-002	4:-9.026119e-002	5:-1.959708e-001	6:-7.418844e-001	7:-9.438353e-001	8:-2.636861e-001	9:-5.080246e-001	10:2.378153e-001	11:3.421947e-001	12:4.427213e-001
1.578361e+001	1:3.721645e-002	2:1.360985e-001	3:1.633026e-002	4:-1.222808e-001	5:-2.219803e-001	6:-8.145177e-001	7:-8.788652e-001	8:-2.756053e-001	9:-5.202118e-001	10:2.224522e-001	11:3.606142e-001	12:4.340827e-001
1.578361e+001	1:1.322740e-001	2:1.240240e-001	3:1.791733e-002	4:-7.354929e-002	5:-2.521331e-001	6:-8.113553e-001	7:-8.331257e-001	8:-2.868554e-001	9:-5.233647e-001	10:2.479067e-001	11:3.516939e-001	12:4.960945e-001
1.578361e+001	1:1.203918e-001	2:8.780055e-002	3:3.061386e-002	4:-8.953131e-002	5:-2.273427e-001	6:-8.576936e-001	7:-6.534045e-001	8:-2.198556e-001	9:-5.863646e-001	10:2.162543e-001	11:3.007282e-001	12:4.224076e-001
1.578361e+001	1:-1.172521e-001	2:-2.086980e-002	3:9.250949e-002	4:-1.392670e-001	5:-2.364664e-001	6:-7.739644e-001	7:-8.104385e-001	8:-3.297648e-001	9:-6.569540e-001	10:1.925373e-001	11:3.170755e-001	12:4.080269e-001
1.578361e+001	1:1.679206e-001	2:1.602475e-001	3:6.711642e-002	4:-9.393928e-002	5:-3.237090e-001	6:-8.652579e-001	7:-6.297536e-001	8:-2.614539e-001	9:-5.778818e-001	10:2.780968e-001	11:3.766607e-001	12:4.729509e-001
1.578361e+001	1:2.510960e-001	2:2.085454e-001	3:8.298709e-002	4:-7.261814e-002	5:-2.224322e-001	6:-8.073446e-001	7:-7.868051e-001	8:-3.493554e-001	9:-5.939640e-001	10:2.248176e-001	11:3.238451e-001	12:4.377533e-001
1.578361e+001	1:2.035672e-001	2:1.240240e-001	3:8.933536e-002	4:-1.796750e-001	5:-3.519081e-001	6:-8.588486e-001	7:-1.942529e-001	8:5.871960e-002	9:1.737800e-001	10:2.180810e-001	11:3.676168e-001	12:5.034050e-001
1.578361e+001	1:1.203918e-001	2:-9.331671e-002	3:1.004448e-001	4:-1.125984e-002	5:-2.639284e-001	6:-8.729528e-001	7:-3.942615e-001	8:-3.557504e-002	9:-2.300746e-001	10:2.385575e-001	11:3.242591e-001	12:4.361649e-001
1.578361e+001	1:-9.348772e-002	2:-3.294429e-002	3:1.226638e-001	4:-7.967976e-002	5:-1.870738e-001	6:-7.358250e-001	7:-9.210660e-001	8:-3.058402e-001	9:-6.233407e-001	10:2.193906e-001	11:2.956119e-001	12:3.862503e-001
1.578361e+001	1:7.286304e-002	2:8.780055e-002	3:1.401215e-001	4:-1.006591e-001	5:-3.196595e-001	6:-8.678259e-001	7:3.271262e-002	8:1.064087e-001	9:-4.750560e-002	10:1.959076e-001	11:3.486768e-001	12:4.443101e-001
1.578361e+001	1:1.569858e-003	2:2.085454e-001	3:7.822589e-002	4:-9.091487e-002	5:-2.045473e-001	6:-7.757130e-001	7:-8.190448e-001	8:-1.925805e-001	9:-5.368295e-001	10:2.301739e-001	11:3.078132e-001	12:4.024153e-001
1.578361e+001	1:2.035672e-001	2:1.723219e-001	3:6.235521e-002	4:-3.000906e-002	5:-2.320384e-001	6:-8.378204e-001	7:-7.521866e-001	8:-2.396671e-001	9:-5.153353e-001	10:2.559110e-001	11:3.597880e-001	12:4.710809e-001
1.578361e+001	1:1.679206e-001	2:9.987504e-002	3:4.489747e-002	4:-8.391023e-002	5:-1.960058e-001	6:-8.335236e-001	7:-6.238117e-001	8:-1.653372e-001	9:-5.715109e-001	10:2.176222e-001	11:3.849692e-001	12:4.898728e-001
1.578361e+001	1:3.721645e-002	2:-8.795319e-003	3:1.067931e-001	4:-1.923177e-001	5:-2.986073e-001	6:-7.761477e-001	7:-8.144145e-001	8:-2.654336e-001	9:-6.319339e-001	10:2.603069e-001	11:3.468474e-001	12:4.573503e-001
1.578361e+001	1:-6.972333e-002	2:5.157710e-002	3:7.822589e-002	4:-8.482060e-002	5:-2.429535e-001	6:-8.504881e-001	7:-5.417715e-001	8:-6.835311e-002	9:-4.311743e-001	10:1.680060e-001	11:2.759167e-001	12:3.924436e-001
1.578361e+001	1:4.909865e-002	2:-5.709326e-002	3:6.235521e-002	4:-5.461777e-002	5:-4.680742e-001	6:-9.052530e-001	7:-8.071000e-001	8:-2.342903e-001	9:-6.253068e-001	10:2.174759e-001	11:3.026258e-001	12:4.206077e-001
1.578361e+001	1:4.909865e-002	2:7.572607e-002	3:9.981988e-003	4:-3.184549e-002	5:-3.098836e-001	6:-8.927270e-001	7:-3.732496e-001	8:4.755003e-002	9:-8.214308e-002	10:1.253573e-001	11:2.906284e-001	12:4.049351e-001
1.578361e+001	1:7.286304e-002	2:-2.086980e-002	3:2.743973e-002	4:-1.489642e-001	5:-4.428011e-001	6:-9.174914e-001	7:-3.150169e-001	8:-1.115289e-001	9:-4.866667e-001	10:2.116034e-001	11:3.117614e-001	12:4.244521e-001
1.578361e+001	1:-2.219454e-002	2:-4.501877e-002	3:4.965867e-002	4:-2.917668e-001	5:-1.864456e-001	6:-7.388905e-001	7:-8.347284e-001	8:-3.444979e-001	9:-6.677746e-001	10:2.331885e-001	11:3.006105e-001	12:3.923050e-001
1.578361e+001	1:-1.647809e-001	2:1.535365e-002	3:4.807161e-002	4:-3.164793e-002	5:-1.525762e-001	6:-7.201511e-001	7:-8.887799e-001	8:-2.584351e-001	9:-6.151390e-001	10:2.208532e-001	11:2.841059e-001	12:4.179811e-001
1.578361e+001	1:1.345206e-002	2:1.843964e-001	3:4.013627e-002	4:-7.662811e-002	5:-3.478220e-001	6:-8.937826e-001	7:-6.859880e-001	8:-1.863737e-001	9:-3.100770e-001	10:-7.029116e-002	11:2.752647e-001	12:4.140860e-001
1.578361e+001	1:1.798028e-001	2:1.119495e-001	3:3.220093e-002	4:-2.810309e-002	5:-6.407344e-001	6:-8.634882e-001	7:-5.625678e-001	8:-2.457468e-001	9:-5.627395e-001	10:2.549132e-001	11:3.914794e-001	12:4.896425e-001
1.578361e+001	1:2.629782e-001	2:5.157710e-002	3:4.648454e-002	4:-6.879057e-002	5:-7.395251e-001	6:-7.637170e-001	7:-5.654354e-001	8:-1.994062e-001	9:-4.142085e-001	10:2.307453e-001	11:3.122547e-001	12:4.093889e-001
1.578361e+001	1:-2.219454e-002	2:3.279164e-003	3:7.822589e-002	4:-8.984477e-002	5:-2.040377e-001	6:-7.424309e-001	7:-9.371506e-001	8:-3.559403e-001	9:-6.086520e-001	10:2.343192e-001	11:3.226217e-001	12:4.059444e-001
1.578361e+001	1:1.569858e-003	2:-9.331671e-002	3:9.568363e-002	4:-2.271684e-002	5:-2.144214e-001	6:-7.507412e-001	7:-8.714696e-001	8:-3.206992e-001	9:-7.153995e-001	10:1.651544e-001	11:2.471858e-001	12:3.490064e-001
1.578361e+001	1:8.474524e-002	2:9.987504e-002	3:1.633026e-002	4:3.276490e-003	5:-3.342342e-001	6:-8.080606e-001	7:-6.283499e-001	8:-3.231534e-001	9:-6.380542e-001	10:2.147479e-001	11:3.287983e-001	12:4.529815e-001
1.578361e+001	1:9.662744e-002	2:1.240240e-001	3:6.807854e-003	4:-1.997800e-002	5:-1.337514e-001	6:-6.915208e-001	7:-8.686419e-001	8:-2.519854e-001	9:-5.314254e-001	10:2.583496e-001	11:3.568498e-001	12:4.685028e-001
1.578361e+001	1:1.203918e-001	2:1.240240e-001	3:3.633719e-003	4:-1.345655e-001	5:-2.475568e-001	6:-8.432446e-001	7:-7.714071e-001	8:-2.472687e-001	9:-5.777356e-001	10:2.093759e-001	11:2.922408e-001	12:4.189815e-001
1.578361e+001	1:1.203918e-001	2:-8.795319e-003	3:3.696213e-002	4:-1.754073e-001	5:-2.181585e-001	6:-7.673650e-001	7:-8.139607e-001	8:-3.224369e-001	9:-6.406579e-001	10:2.009159e-001	11:3.008673e-001	12:4.473309e-001
1.578361e+001	1:-1.031234e-002	2:-1.536891e-001	3:7.663882e-002	4:3.248591e-002	5:-2.044587e-001	6:-7.222680e-001	7:-7.603317e-001	8:-3.342805e-001	9:-6.847741e-001	10:1.722559e-001	11:2.744991e-001	12:4.069797e-001
1.578361e+001	1:-2.219454e-002	2:1.602475e-001	3:5.600694e-002	4:-5.213309e-002	5:-5.977558e-001	6:-8.086437e-001	7:-6.842946e-001	8:-2.810247e-001	9:-6.112270e-001	10:2.565385e-001	11:3.708130e-001	12:5.022222e-001
1.578361e+001	1:1.560384e-001	2:2.568433e-001	3:3.537507e-002	4:-1.068687e-001	5:-2.396301e-001	6:-7.919877e-001	7:-7.652775e-001	8:-2.153253e-001	9:-4.855139e-001	10:2.793784e-001	11:3.768350e-001	12:4.539036e-001
1.578361e+001	1:6.098085e-002	2:-3.294429e-002	3:9.092243e-002	4:-1.315810e-001	5:-2.404400e-001	6:-8.312359e-001	7:-7.231619e-001	8:-2.303290e-001	9:-5.661847e-001	10:8.551489e-002	11:2.468713e-001	12:3.896372e-001
1.578361e+001	1:-3.407673e-002	2:-1.657636e-001	3:8.616122e-002	4:6.029742e-002	5:-4.740233e-001	6:-8.997988e-001	7:-4.228782e-001	8:-5.213715e-002	9:-2.689180e-001	10:1.984235e-001	11:3.147944e-001	12:4.265240e-001
1.578361e+001	1:-1.647809e-001	2:1.535365e-002	3:4.648454e-002	4:-1.106997e-001	5:-4.083214e-001	6:-9.314973e-001	7:-6.453781e-001	8:-2.595453e-001	9:-5.732755e-001	10:2.233751e-001	11:3.318992e-001	12:4.389647e-001
1.578361e+001	1:1.345206e-002	2:1.602475e-001	3:2.426560e-002	4:-1.055732e-001	5:-2.627202e-001	6:-8.414931e-001	7:-7.867334e-001	8:-2.497314e-001	9:-5.499269e-001	10:2.027054e-001	11:3.457756e-001	12:4.719494e-001
1.578361e+001	1:-1.172521e-001	2:-3.294429e-002	3:3.854920e-002	4:-1.711406e-001	5:-3.006040e-001	6:-8.329410e-001	7:-4.971641e-001	8:-3.609108e-002	9:-4.122550e-001	10:1.454570e-001	11:2.836752e-001	12:4.104187e-001
1.578361e+001	1:-3.407673e-002	2:-4.501877e-002	3:6.807854e-003	4:-1.429469e-001	5:-1.824723e-001	6:-7.585107e-001	7:-7.878163e-001	8:-2.461133e-001	9:-6.475180e-001	10:2.125236e-001	11:3.076698e-001	12:3.719377e-001
1.578361e+001	1:2.533425e-002	2:-8.124222e-002	3:-9.317739e-002	4:-1.299410e-001	5:-2.382819e-001	6:-8.308224e-001	7:-2.787398e-001	8:2.520672e-001	9:5.892715e-002	10:1.963706e-001	11:3.052342e-001	12:3.255020e-001
1.578361e+001	1:-2.219454e-002	2:-1.053912e-001	3:-1.090481e-001	4:-6.950191e-002	5:-2.929524e-001	6:-8.466689e-001	7:-6.541495e-001	8:-2.896805e-001	9:-6.297495e-001	10:2.331123e-001	11:3.700672e-001	12:4.585349e-001
1.578361e+001	1:-1.053699e-001	2:-2.502850e-001	3:-1.360282e-001	4:-7.351678e-002	5:-2.602031e-001	6:-8.034191e-001	7:-2.999239e-001	8:5.764416e-002	9:-2.625921e-001	10:2.042540e-001	11:3.211438e-001	12:3.794113e-001
1.578361e+001	1:-2.836029e-001	2:-8.124222e-002	3:-2.074462e-001	4:-5.585514e-002	5:-1.694501e-001	6:-6.994395e-001	7:-9.330674e-001	8:-2.467775e-001	9:-5.440671e-001	10:3.039463e-001	11:3.411123e-001	12:4.605504e-001
1.578361e+001	1:-8.160552e-002	2:-1.174657e-001	3:-2.439488e-001	4:-1.768200e-003	5:-2.258389e-001	6:-8.437993e-001	7:-5.497100e-001	8:-1.710779e-002	9:-3.470821e-001	10:2.377529e-001	11:3.489649e-001	12:4.974502e-001
1.578361e+001	1:-2.479563e-001	2:-2.623595e-001	3:-2.407747e-001	4:-1.345342e-001	5:-2.665592e-001	6:-7.962050e-001	7:-6.144565e-001	8:-1.846211e-001	9:-6.290840e-001	10:1.821656e-001	11:2.638212e-001	12:4.343409e-001
1.578361e+001	1:7.286304e-002	2:-8.124222e-002	3:-2.074462e-001	4:-9.601729e-002	5:-7.733046e-001	6:-1.118674e+000	7:-6.898026e-001	8:-2.138804e-001	9:-4.689794e-001	10:2.899741e-001	11:3.993062e-001	12:4.595321e-001
1.578361e+001	1:-8.160552e-002	2:-1.053912e-001	3:-1.709437e-001	4:-2.642064e-001	5:-2.290209e-001	6:-7.537813e-001	7:-6.137654e-001	8:-2.296381e-002	9:-3.613412e-001	10:1.270495e-001	11:3.046522e-001	12:3.907055e-001
1.578361e+001	1:-2.598385e-001	2:-1.778381e-001	3:-9.159033e-002	4:-5.311227e-002	5:-1.786364e-001	6:-7.017408e-001	7:-8.675141e-001	8:-9.408737e-002	9:-5.631964e-001	10:1.884562e-001	11:2.380345e-001	12:3.095144e-001
1.578361e+001	1:-1.031234e-002	2:-3.294429e-002	3:-4.239124e-002	4:-1.497830e-001	5:-2.672032e-001	6:-8.252426e-001	7:-5.011432e-001	8:8.149393e-002	9:-4.176050e-001	10:2.361804e-001	11:3.172339e-001	12:3.887303e-001
1.578361e+001	1:-3.407673e-002	2:1.240240e-001	3:-4.239124e-002	4:-1.428999e-001	5:-4.859121e-001	6:-9.965558e-001	7:-7.374060e-001	8:-3.599443e-002	9:-4.197298e-001	10:2.856529e-001	11:3.512907e-001	12:4.476929e-001
1.578361e+001	1:7.286304e-002	2:1.119495e-001	3:6.807854e-003	4:-7.328305e-002	5:-2.447207e-001	6:-9.518572e-001	7:-4.996074e-001	8:-1.030577e-001	9:-5.205305e-001	10:2.926169e-001	11:3.535169e-001	12:4.440214e-001
1.578361e+001	1:6.098085e-002	2:9.987504e-002	3:1.401215e-001	4:-2.271228e-002	5:-2.719472e-001	6:-7.914539e-001	7:-8.057100e-001	8:-2.185557e-001	9:-5.112719e-001	10:2.164320e-001	11:3.607245e-001	12:4.452559e-001
1.578361e+001	1:9.662744e-002	2:9.987504e-002	3:1.036190e-001	4:-3.191399e-002	5:-2.362969e-001	6:-8.626011e-001	7:-6.218779e-001	8:-1.335615e-001	9:-5.192924e-001	10:2.673073e-001	11:3.347622e-001	12:3.991977e-001
1.578361e+001	1:2.748604e-001	2:3.051413e-001	3:1.353603e-001	4:-1.446925e-001	5:-2.700418e-001	6:-8.257103e-001	7:-7.305673e-001	8:-1.964718e-001	9:-4.325325e-001	10:2.848430e-001	11:3.715414e-001	12:4.703329e-001
1.578361e+001	1:1.679206e-001	2:2.689178e-001	3:1.845594e-001	4:-6.236860e-002	5:-2.490964e-001	6:-7.645469e-001	7:-7.909832e-001	8:-1.675903e-001	9:-4.529733e-001	10:2.494420e-001	11:3.782669e-001	12:4.626236e-001
1.578361e+001	1:2.392138e-001	2:9.987504e-002	3:2.067783e-001	4:-1.174511e-001	5:-2.705666e-001	6:-7.701475e-001	7:-5.692156e-001	8:-2.130649e-001	9:-5.940693e-001	10:6.764297e-002	11:3.107912e-001	12:4.423904e-001
1.578361e+001	1:9.662744e-002	2:-9.331671e-002	3:1.877335e-001	4:-1.640686e-001	5:-2.057583e-001	6:-7.349483e-001	7:-8.310822e-001	8:-1.687950e-001	9:-5.866378e-001	10:2.353546e-001	11:3.048191e-001	12:4.069778e-001
1.578361e+001	1:-9.348772e-002	2:-5.709326e-002	3:1.623405e-001	4:-1.076791e-001	5:-2.858885e-001	6:-8.166836e-001	7:-7.571102e-001	8:-1.883048e-001	9:-6.122523e-001	10:2.218683e-001	11:2.553157e-001	12:3.273410e-001
1.578361e+001	1:2.533425e-002	2:7.572607e-002	3:1.020319e-001	4:-1.625092e-001	5:-3.249036e-001	6:-9.468997e-001	7:-5.663141e-001	8:-3.161805e-002	9:-3.763855e-001	10:2.747228e-001	11:3.482450e-001	12:4.305708e-001
1.578361e+001	1:7.286304e-002	2:9.987504e-002	3:1.321862e-001	4:-5.313142e-002	5:-2.029688e-001	6:-8.247253e-001	7:-6.632038e-001	8:-1.514819e-001	9:-5.329360e-001	10:2.426363e-001	11:3.136572e-001	12:4.152765e-001
1.578361e+001	1:9.662744e-002	2:1.481730e-001	3:1.718629e-001	4:-1.212161e-001	5:-1.778314e-001	6:-8.290021e-001	7:-5.418556e-001	8:-3.108108e-002	9:-2.765235e-001	10:2.063541e-001	11:3.376563e-001	12:4.124866e-001
1.578361e+001	1:-1.053699e-001	2:3.279164e-003	3:8.298709e-002	4:-8.101758e-002	5:-2.336314e-001	6:-7.679559e-001	7:-7.822063e-001	8:-1.024733e-001	9:-5.293677e-001	10:1.978824e-001	11:2.496717e-001	12:3.400577e-001
1.578361e+001	1:1.569858e-003	2:1.360985e-001	3:4.648454e-002	4:-7.593193e-002	5:-1.780071e-001	6:-7.973334e-001	7:-6.579581e-001	8:-1.624825e-001	9:-5.620785e-001	10:2.719196e-001	11:3.312855e-001	12:4.258363e-001
1.578361e+001	1:2.392138e-001	2:6.365158e-002	3:-4.239124e-002	4:-4.857068e-002	5:-4.371488e-001	6:-7.502925e-001	7:-2.091418e-001	8:4.216945e-002	9:-1.112265e-001	10:2.680321e-001	11:3.878264e-001	12:5.043220e-001
1.578361e+001	1:-2.479563e-001	2:-2.019871e-001	3:-9.317739e-002	4:-1.327616e-001	5:-1.967626e-001	6:-7.812443e-001	7:-5.546482e-001	8:-1.180800e-001	9:-6.086389e-001	10:2.110570e-001	11:2.699750e-001	12:4.512691e-001
1.578361e+001	1:-2.954851e-001	2:-2.140615e-001	3:-1.788790e-001	4:-7.688069e-002	5:-2.952236e-001	6:-8.976930e-001	7:-5.765053e-001	8:-1.873685e-001	9:-5.570436e-001	10:2.608318e-001	11:3.138304e-001	12:4.392190e-001
1.578361e+001	1:-2.123097e-001	2:-1.053912e-001	3:-2.058592e-001	4:-1.420882e-001	5:-2.297035e-001	6:-7.569901e-001	7:-8.094986e-001	8:-2.580597e-001	9:-5.619113e-001	10:2.877005e-001	11:4.197902e-001	12:4.618076e-001
1.578361e+001	1:-1.053699e-001	2:-2.086980e-002	3:-2.264911e-001	4:-9.616886e-002	5:-3.798382e-001	6:-8.416560e-001	7:-2.165119e-001	8:7.126512e-002	9:-1.879066e-001	10:1.497416e-001	11:3.850984e-001	12:4.778246e-001
1.578361e+001	1:-1.885453e-001	2:-8.124222e-002	3:-2.233169e-001	4:-1.377229e-001	5:-1.993807e-001	6:-7.783495e-001	7:-6.270911e-001	8:-1.616913e-001	9:-5.875368e-001	10:2.359747e-001	11:3.138050e-001	12:4.057011e-001
1.578361e+001	1:-8.160552e-002	2:-1.416146e-001	3:-1.788790e-001	4:-2.536750e-002	5:-1.918311e-001	6:-7.623891e-001	7:-8.947666e-001	8:-2.151849e-001	9:-5.251404e-001	10:2.432022e-001	11:3.569006e-001	12:4.845556e-001
1.578361e+001	1:-1.410165e-001	2:-2.261360e-001	3:-1.376153e-001	4:-1.379388e-001	5:-1.941421e-001	6:-7.693119e-001	7:-8.015347e-001	8:-1.170619e-001	9:-4.957035e-001	10:2.600275e-001	11:3.314714e-001	12:4.368069e-001
1.578361e+001	1:-2.241919e-001	2:-3.106574e-001	3:-1.296799e-001	4:-4.791915e-002	5:-1.787993e-001	6:-7.433867e-001	7:-6.833291e-001	8:-9.737227e-002	9:-7.279419e-001	10:1.919926e-001	11:2.833041e-001	12:3.930771e-001
1.578361e+001	1:-1.172521e-001	2:3.950262e-002	3:-1.058739e-001	4:-1.287803e-001	5:-2.633968e-001	6:-8.855817e-001	7:-5.545647e-001	8:-8.652724e-002	9:-5.322549e-001	10:2.314006e-001	11:3.235277e-001	12:4.142734e-001
1.578361e+001	1:-4.595893e-002	2:1.535365e-002	3:-6.143605e-002	4:-7.304219e-002	5:-2.270196e-001	6:-8.647772e-001	7:-6.763780e-001	8:-8.248316e-002	9:-4.956694e-001	10:2.219312e-001	11:3.235781e-001	12:4.248590e-001
1.578361e+001	1:-4.595893e-002	2:1.360985e-001	3:6.711642e-002	4:-2.052792e-001	5:-4.070842e-001	6:-9.172266e-001	7:-4.562555e-001	8:-1.604550e-001	9:-4.442000e-001	10:2.257309e-001	11:3.465590e-001	12:4.705656e-001
1.578361e+001	1:1.679206e-001	2:1.602475e-001	3:8.616122e-002	4:8.303491e-002	5:-3.546619e-001	6:-8.175667e-001	7:-6.593608e-001	8:-8.922491e-002	9:-5.686044e-001	10:2.417434e-001	11:3.076216e-001	12:4.160134e-001
1.578361e+001	1:1.560384e-001	2:1.119495e-001	3:1.131414e-001	4:-4.303304e-002	5:-2.648417e-001	6:-8.431289e-001	7:-6.857298e-001	8:-2.350915e-001	9:-6.276180e-001	10:2.269906e-001	11:3.334424e-001	12:4.725448e-001
1.578361e+001	1:2.392138e-001	2:2.326944e-001	3:1.829723e-001	4:-5.710204e-002	5:-4.879830e-001	6:-9.226183e-001	7:-5.194305e-001	8:-9.963593e-002	9:-3.083157e-001	10:2.811544e-001	11:3.674388e-001	12:4.711982e-001
1.578361e+001	1:1.679206e-001	2:1.602475e-001	3:2.226490e-001	4:-9.715914e-002	5:-2.666590e-001	6:-8.506709e-001	7:-7.870822e-001	8:-2.295822e-001	9:-6.088552e-001	10:1.945217e-001	11:3.322768e-001	12:4.523848e-001
1.578361e+001	1:1.560384e-001	2:1.240240e-001	3:2.369326e-001	4:7.366004e-003	5:-1.582571e-001	6:-7.548676e-001	7:-9.507875e-001	8:-3.002212e-001	9:-5.751902e-001	10:2.498182e-001	11:3.497806e-001	12:4.875561e-001
1.578361e+001	1:8.474524e-002	2:-8.795319e-003	3:2.004301e-001	4:-9.096183e-002	5:-6.951548e-001	6:-1.127531e+000	7:-7.381895e-001	8:-2.358024e-001	9:-6.124867e-001	10:2.248775e-001	11:3.147651e-001	12:4.294517e-001
1.578361e+001	1:6.098085e-002	2:8.780055e-002	3:1.385345e-001	4:-1.597518e-001	5:-3.078662e-001	6:-9.273379e-001	7:-6.240826e-001	8:-2.200505e-001	9:-6.028140e-001	10:2.249142e-001	11:3.303220e-001	12:4.335886e-001
1.578361e+001	1:2.533425e-002	2:6.365158e-002	3:1.655146e-001	4:-5.534960e-002	5:-2.558423e-001	6:-8.030261e-001	7:-7.729035e-001	8:-2.720843e-001	9:-6.389581e-001	10:2.063059e-001	11:3.048652e-001	12:4.105367e-001
1.578361e+001	1:6.098085e-002	2:9.987504e-002	3:1.210767e-001	4:-8.947840e-002	5:-2.832503e-001	6:-9.114423e-001	7:-3.620146e-001	8:-1.262328e-001	9:-5.272776e-001	10:1.951587e-001	11:3.204708e-001	12:4.341499e-001
1.578361e+001	1:1.916850e-001	2:-6.916774e-002	3:1.321862e-001	4:1.409537e-002	5:-3.854981e-001	6:-9.231465e-001	7:-8.361520e-001	8:-2.852244e-001	9:-4.910060e-001	10:2.640329e-001	11:3.403570e-001	12:4.867593e-001
1.578361e+001	1:-4.595893e-002	2:-8.795319e-003	3:1.544051e-001	4:-7.195207e-002	5:-1.555967e-001	6:-7.346233e-001	7:-9.294383e-001	8:-3.158311e-001	9:-5.789955e-001	10:2.382339e-001	11:3.184478e-001	12:4.385945e-001
1.578361e+001	1:1.085096e-001	2:2.326944e-001	3:1.575793e-001	4:-1.152409e-001	5:-2.623435e-001	6:-8.290723e-001	7:-6.230713e-001	8:-1.907416e-001	9:-5.146056e-001	10:2.232854e-001	11:3.830474e-001	12:5.106051e-001
1.578361e+001	1:2.273316e-001	2:1.843964e-001	3:1.226638e-001	4:-8.376514e-002	5:-2.845406e-001	6:-8.805916e-001	7:-4.336392e-001	8:1.259660e-002	9:-9.645478e-002	10:2.589734e-001	11:3.564884e-001	12:4.257162e-001
1.578361e+001	1:1.798028e-001	2:1.481730e-001	3:1.385345e-001	4:-6.504351e-002	5:-6.039763e-001	6:-1.025186e+000	7:-6.183772e-001	8:-1.680184e-001	9:-5.335883e-001	10:2.612076e-001	11:3.511346e-001	12:4.228457e-001
1.578361e+001	1:3.461536e-001	2:8.780055e-002	3:2.020171e-001	4:-8.549157e-002	5:-4.310765e-001	6:-1.027022e+000	7:-5.669660e-001	8:-2.233765e-001	9:-5.715760e-001	10:2.418806e-001	11:3.633548e-001	12:4.555511e-001
1.578361e+001	1:8.474524e-002	2:-6.916774e-002	3:2.178878e-001	4:-4.231371e-002	5:-1.717674e-001	6:-8.010879e-001	7:-8.485311e-001	8:-2.124449e-001	9:-6.013197e-001	10:2.396160e-001	11:3.125879e-001	12:3.936995e-001
1.578361e+001	1:-6.972333e-002	2:5.157710e-002	3:2.115396e-001	4:-1.300436e-001	5:-1.927957e-001	6:-8.109318e-001	7:-7.286394e-001	8:-2.184841e-001	9:-6.291411e-001	10:2.276064e-001	11:3.090199e-001	12:3.914474e-001
1.578361e+001	1:1.798028e-001	2:2.742813e-002	3:1.179026e-001	4:-1.103462e-001	5:-1.960535e-001	6:-7.999879e-001	7:-8.648269e-001	8:-2.368244e-001	9:-5.498474e-001	10:1.992527e-001	11:3.185374e-001	12:4.634426e-001
1.578361e+001	1:-5.784113e-002	2:-1.053912e-001	3:1.115543e-001	4:-6.786669e-002	5:-2.316403e-001	6:-8.313711e-001	7:-6.527314e-001	8:-1.143343e-001	9:-5.786241e-001	10:2.122486e-001	11:2.764463e-001	12:3.911214e-001
1.578361e+001	1:4.909865e-002	2:1.360985e-001	3:4.013627e-002	4:-7.697272e-002	5:-2.129636e-001	6:-8.272223e-001	7:-6.876682e-001	8:-7.226223e-002	9:-5.227968e-001	10:2.527348e-001	11:3.079442e-001	12:3.741141e-001
1.578361e+001	1:1.322740e-001	2:2.568433e-001	3:6.552935e-002	4:-1.531483e-001	5:-5.497972e-001	6:-1.072431e+000	7:-4.667138e-001	8:2.280992e-002	9:-3.149385e-001	10:3.007050e-001	11:3.352438e-001	12:4.119809e-001
1.578361e+001	1:-1.885453e-001	2:-3.294429e-002	3:1.528181e-001	4:-1.431535e-001	5:-1.753815e-001	6:-8.235264e-001	7:-6.494162e-001	8:-2.118986e-002	9:-5.453140e-001	10:2.222037e-001	11:2.674076e-001	12:3.641893e-001
1.578361e+001	1:-3.407673e-002	2:1.360985e-001	3:1.575793e-001	4:-6.838377e-002	5:-2.088407e-001	6:-8.141303e-001	7:-4.644167e-001	8:3.076092e-002	9:-4.690640e-001	10:1.950286e-001	11:3.353733e-001	12:4.207322e-001
1.578361e+001	1:3.580358e-001	2:2.326944e-001	3:7.822589e-002	4:2.549614e-002	5:-2.324044e-001	6:-7.906849e-001	7:-6.222933e-001	8:-1.890373e-001	9:-5.821668e-001	10:2.627565e-001	11:3.759023e-001	12:4.778593e-001
1.578361e+001	1:8.474524e-002	2:8.780055e-002	3:1.512310e-001	4:-1.315145e-001	5:-2.038635e-001	6:-8.630831e-001	7:-5.189310e-001	8:5.520713e-002	9:-4.079468e-001	10:2.450627e-001	11:2.702475e-001	12:4.004161e-001
-7.318334e+000	1:-9.846525e-001	2:7.881206e-001	3:2.099525e-001	4:1.668298e-001	5:3.428100e-002	6:-4.355372e-001	7:-4.150237e-001	8:-1.846464e-001	9:-6.257255e-001	10:2.570950e-001	11:3.259290e-001	12:4.385667e-001
1.578361e+001	1:1.679206e-001	2:3.051413e-001	3:1.607534e-001	4:-1.109951e-002	5:-3.111063e-001	6:-9.430626e-001	7:-1.626529e-001	8:1.446225e-001	9:-4.428832e-001	10:2.834249e-001	11:2.880776e-001	12:3.887591e-001
1.578361e+001	1:2.986248e-001	2:3.172157e-001	3:1.432957e-001	4:-4.802858e-002	5:-2.246194e-001	6:-8.308017e-001	7:-6.040903e-001	8:-1.121582e-001	9:-4.173664e-001	10:2.995216e-001	11:3.408230e-001	12:4.724573e-001
1.578361e+001	1:3.105070e-001	2:2.326944e-001	3:1.321862e-001	4:-7.125511e-002	5:-1.860781e-001	6:-7.663237e-001	7:-7.848113e-001	8:-1.488031e-001	9:-4.340479e-001	10:2.893959e-001	11:3.573241e-001	12:4.666093e-001
1.578361e+001	1:3.721645e-002	2:-4.501877e-002	3:1.909077e-001	4:-2.211263e-002	5:-1.817958e-001	6:-7.971439e-001	7:-7.152481e-001	8:-1.424962e-001	9:-5.595256e-001	10:2.519600e-001	11:2.954322e-001	12:3.865156e-001
1.578361e+001	1:1.569858e-003	2:5.157710e-002	3:1.448827e-001	4:-8.663584e-002	5:-5.012212e-001	6:-8.167139e-001	7:-2.617986e-001	8:1.806517e-002	9:-1.713250e-001	10:2.575563e-001	11:3.358456e-001	12:4.691046e-001
1.578361e+001	1:1.916850e-001	2:7.572607e-002	3:8.933536e-002	4:6.882824e-002	5:-2.377240e-001	6:-7.679085e-001	7:-6.599340e-001	8:-1.243774e-001	9:-5.538934e-001	10:2.393036e-001	11:3.867260e-001	12:4.436413e-001
1.578361e+001	1:7.286304e-002	2:-5.709326e-002	3:1.179026e-001	4:-1.258515e-001	5:-2.246120e-001	6:-7.626921e-001	7:-4.931283e-001	8:-3.856343e-002	9:-6.160010e-001	10:2.370286e-001	11:2.832388e-001	12:3.838005e-001
1.578361e+001	1:-5.784113e-002	2:-5.709326e-002	3:1.321862e-001	4:-1.589548e-001	5:-2.639779e-001	6:-8.527092e-001	7:-3.900902e-001	8:-1.474383e-002	9:-5.915442e-001	10:2.683759e-001	11:3.084337e-001	12:3.852277e-001
1.578361e+001	1:-5.784113e-002	2:-2.086980e-002	3:1.353603e-001	4:-1.476539e-001	5:-1.929291e-001	6:-7.919809e-001	7:-7.421152e-001	8:-7.115088e-002	9:-4.969276e-001	10:2.487144e-001	11:2.831633e-001	12:3.889472e-001
1.578361e+001	1:-2.219454e-002	2:1.240240e-001	3:1.163155e-001	4:-2.273353e-001	5:-6.995422e-001	6:-8.788573e-001	7:-3.782595e-001	8:-4.599468e-002	9:-3.276467e-001	10:2.754287e-001	11:3.966351e-001	12:4.792038e-001
1.578361e+001	1:1.560384e-001	2:1.602475e-001	3:8.298709e-002	4:-4.339209e-002	5:-2.424711e-001	6:-8.307651e-001	7:-4.448054e-001	8:2.855527e-002	9:-4.863372e-001	10:2.839217e-001	11:3.421616e-001	12:4.417484e-001
1.578361e+001	1:1.560384e-001	2:7.572607e-002	3:1.083802e-001	4:7.815250e-002	5:-1.799014e-001	6:-8.493353e-001	7:-5.058919e-001	8:-9.185860e-002	9:-5.533104e-001	10:2.860060e-001	11:3.611334e-001	12:4.745522e-001
1.578361e+001	1:7.286304e-002	2:-3.294429e-002	3:1.512310e-001	4:-6.110621e-002	5:-2.285336e-001	6:-7.882523e-001	7:-6.483100e-001	8:-1.519543e-001	9:-5.593932e-001	10:2.228303e-001	11:3.525331e-001	12:3.985930e-001
1.578361e+001	1:-3.407673e-002	2:-8.795319e-003	3:1.750370e-001	4:-3.663447e-002	5:-1.830297e-001	6:-7.603246e-001	7:-5.785957e-001	8:-3.798141e-002	9:-5.768619e-001	10:2.265190e-001	11:3.001206e-001	12:4.114115e-001
1.578361e+001	1:-1.031234e-002	2:3.279164e-003	3:1.655146e-001	4:-1.051814e-001	5:-4.816713e-001	6:-9.918298e-001	7:-5.170967e-001	8:-7.096552e-004	9:-4.977971e-001	10:2.780642e-001	11:3.316157e-001	12:4.526487e-001
1.578361e+001	1:1.569858e-003	2:1.360985e-001	3:1.512310e-001	4:-7.974062e-002	5:-2.268769e-001	6:-8.774792e-001	7:-3.898667e-001	8:6.192606e-002	9:-3.255833e-001	10:2.372582e-001	11:3.497188e-001	12:4.205065e-001
1.578361e+001	1:1.441562e-001	2:5.157710e-002	3:1.909077e-001	4:2.476735e-003	5:-2.349737e-001	6:-7.909604e-001	7:-7.207476e-001	8:-7.152349e-002	9:-5.328623e-001	10:2.521552e-001	11:2.972375e-001	12:4.148399e-001
1.578361e+001	1:4.909865e-002	2:5.157710e-002	3:2.178878e-001	4:-1.665797e-001	5:-1.645109e-001	6:-7.388680e-001	7:-7.723286e-001	8:-2.113648e-001	9:-5.663735e-001	10:2.737168e-001	11:3.686011e-001	12:4.701390e-001
1.578361e+001	1:2.035672e-001	2:3.292902e-001	3:1.861465e-001	4:9.187971e-002	5:-2.300767e-001	6:-8.599655e-001	7:-5.556761e-001	8:-1.040660e-001	9:-5.005178e-001	10:3.001733e-001	11:4.066400e-001	12:4.701777e-001
1.578361e+001	1:1.085096e-001	2:5.157710e-002	3:2.178878e-001	4:-5.580930e-002	5:-2.505766e-001	6:-7.028628e-001	7:-7.016249e-001	8:-1.588777e-001	9:-5.114667e-001	10:2.428674e-001	11:2.950622e-001	12:3.893884e-001
1.578361e+001	1:4.909865e-002	2:-2.086980e-002	3:2.337585e-001	4:3.626645e-002	5:-1.558049e-001	6:-7.587684e-001	7:-7.538199e-001	8:-2.751379e-001	9:-6.443643e-001	10:2.161474e-001	11:2.828180e-001	12:3.853444e-001
1.578361e+001	1:-2.219454e-002	2:2.326944e-001	3:2.242361e-001	4:-1.540168e-001	5:-2.049600e-001	6:-7.305711e-001	7:-7.297556e-001	8:-1.156516e-001	9:-5.256420e-001	10:2.430865e-001	11:3.503701e-001	12:4.587527e-001
1.578361e+001	1:2.510960e-001	2:1.481730e-001	3:1.686887e-001	4:-2.281893e-002	5:-7.753042e-001	6:-6.237668e-001	7:-6.365397e-002	8:1.427438e-001	9:-1.293168e-001	10:2.880622e-001	11:3.350994e-001	12:3.906094e-001
1.578361e+001	1:1.441562e-001	2:2.085454e-001	3:1.575793e-001	4:-4.820574e-002	5:-2.474045e-001	6:-8.341930e-001	7:-4.969875e-001	8:-5.581265e-002	9:-3.731075e-001	10:2.081857e-001	11:3.625311e-001	12:4.738430e-001
1.578361e+001	1:2.533425e-002	2:1.360985e-001	3:1.877335e-001	4:-6.312177e-002	5:-1.912072e-001	6:-7.362127e-001	7:-6.097585e-001	8:-1.998838e-001	9:-6.317449e-001	10:2.173915e-001	11:3.221025e-001	12:4.029204e-001
1.578361e+001	1:9.662744e-002	2:9.987504e-002	3:1.686887e-001	4:-1.034346e-001	5:-1.953502e-001	6:-8.417867e-001	7:-5.247398e-001	8:-1.786084e-001	9:-5.549789e-001	10:1.821321e-001	11:3.638596e-001	12:4.106401e-001
1.578361e+001	1:9.662744e-002	2:2.742813e-002	3:2.099525e-001	4:1.894962e-002	5:-3.516312e-001	6:-9.335680e-001	7:-5.412643e-001	8:-4.322981e-002	9:-3.720708e-001	10:2.571577e-001	11:3.340730e-001	12:4.562357e-001
1.578361e+001	1:2.273316e-001	2:2.326944e-001	3:1.686887e-001	4:-6.145252e-003	5:-2.523157e-001	6:-8.188570e-001	7:-6.280053e-001	8:-9.393002e-002	9:-4.815803e-001	10:2.672511e-001	11:3.455756e-001	12:4.768967e-001
1.578361e+001	1:3.461536e-001	2:1.843964e-001	3:1.813853e-001	4:-6.672135e-003	5:-2.487246e-001	6:-9.092424e-001	7:-7.139434e-001	8:-1.169781e-001	9:-4.707548e-001	10:2.793000e-001	11:3.337253e-001	12:4.286104e-001
1.578361e+001	1:1.798028e-001	2:1.535365e-002	3:1.956689e-001	4:4.283336e-002	5:-2.141417e-001	6:-8.043036e-001	7:-8.052882e-001	8:-1.851218e-001	9:-4.812791e-001	10:2.531980e-001	11:3.719327e-001	12:4.332039e-001
1.578361e+001	1:1.345206e-002	2:3.950262e-002	3:2.321714e-001	4:6.539361e-002	5:-1.129478e-001	6:-7.215336e-001	7:-6.577269e-001	8:-1.833183e-001	9:-5.844700e-001	10:2.669224e-001	11:3.665086e-001	12:4.874871e-001
1.578361e+001	1:3.721645e-002	2:5.157710e-002	3:2.274102e-001	4:-1.655596e-001	5:-2.115930e-001	6:-7.831427e-001	7:-7.021416e-001	8:-3.824029e-002	9:-4.904330e-001	10:2.365258e-001	11:2.696660e-001	12:3.885303e-001
1.578361e+001	1:4.909865e-002	2:1.360985e-001	3:2.226490e-001	4:-5.290318e-002	5:-3.627351e-001	6:-8.840556e-001	7:-1.998905e-001	8:5.089855e-002	9:-3.393386e-001	10:2.659201e-001	11:3.046706e-001	12:3.657887e-001
1.578361e+001	1:1.916850e-001	2:1.964709e-001	3:1.829723e-001	4:-3.615366e-002	5:-1.909783e-001	6:-8.043465e-001	7:-7.126956e-001	8:-2.870168e-002	9:-4.458987e-001	10:2.955973e-001	11:3.611184e-001	12:4.757403e-001
1.578361e+001	1:-4.595893e-002	2:2.206199e-001	3:1.734499e-001	4:-7.916367e-002	5:-1.922888e-001	6:-8.228614e-001	7:-5.422230e-001	8:2.718872e-002	9:-4.945813e-001	10:2.521598e-001	11:3.408064e-001	12:4.324235e-001
1.578361e+001	1:2.154494e-001	2:3.896627e-001	3:1.591663e-001	4:-5.168437e-002	5:-2.029237e-001	6:-8.428674e-001	7:-7.048884e-001	8:-8.103255e-002	9:-3.756709e-001	10:2.905083e-001	11:3.527108e-001	12:4.445180e-001
1.578361e+001	1:2.986248e-001	2:1.535365e-002	3:1.432957e-001	4:-2.917715e-002	5:-1.866232e-001	6:-7.497047e-001	7:-5.778284e-001	8:-3.726346e-002	9:-4.920180e-001	10:2.449808e-001	11:3.911697e-001	12:4.954957e-001
1.578361e+001	1:1.345206e-002	2:-8.124222e-002	3:1.544051e-001	4:-5.897041e-002	5:-2.428250e-001	6:-8.294229e-001	7:-5.188208e-001	8:-6.212961e-002	9:-6.151404e-001	10:2.033612e-001	11:2.444170e-001	12:3.370642e-001
1.578361e+001	1:8.474524e-002	2:2.447688e-001	3:1.052060e-001	4:8.589595e-003	5:-2.672424e-001	6:-8.964242e-001	7:-5.575252e-001	8:-1.525437e-002	9:-4.808468e-001	10:2.823572e-001	11:3.354676e-001	12:4.239242e-001
1.578361e+001	1:2.392138e-001	2:3.172157e-001	3:1.401215e-001	4:4.676093e-002	5:-4.354839e-001	6:-8.981416e-001	7:-7.509723e-001	8:-1.114606e-001	9:-4.439275e-001	10:2.660866e-001	11:3.670856e-001	12:4.782634e-001
1.578361e+001	1:1.916850e-001	2:-1.657636e-001	3:1.448827e-001	4:-9.736434e-002	5:-4.169427e-001	6:-8.553259e-001	7:-7.676632e-001	8:-5.172551e-002	9:-5.228318e-001	10:2.688739e-001	11:3.360690e-001	12:4.304597e-001
1.578361e+001	1:1.322740e-001	2:1.119495e-001	3:1.607534e-001	4:-1.586857e-001	5:-2.707186e-001	6:-9.005716e-001	7:-4.018525e-001	8:-4.303260e-002	9:-4.869937e-001	10:2.517412e-001	11:3.737901e-001	12:4.924132e-001
1.578361e+001	1:1.085096e-001	2:-7.815623e-001	3:1.766241e-001	4:-2.093859e-001	5:-1.779489e-001	6:-7.958365e-001	7:-7.555395e-001	8:-1.466928e-001	9:-4.210145e-001	10:2.259438e-001	11:3.354496e-001	12:4.536714e-001
1.578361e+001	1:2.986248e-001	2:1.723219e-001	3:1.353603e-001	4:6.970980e-002	5:-4.913435e-001	6:-6.386693e-001	7:1.828471e-001	8:1.546117e-001	9:4.952734e-002	10:2.777177e-001	11:3.709999e-001	12:4.620385e-001
-7.318334e+000	1:-5.450112e-001	2:4.862585e-001	3:1.782111e-001	4:2.846826e-002	5:-1.524581e-001	6:-7.911366e-001	7:-6.805676e-001	8:-2.579559e-001	9:-6.044923e-001	10:2.656517e-001	11:3.489128e-001	12:4.170430e-001
1.578361e+001	1:4.768578e-001	2:1.240240e-001	3:1.702758e-001	4:-1.117507e-002	5:-4.103748e-001	6:-8.229390e-001	7:-8.678721e-001	8:-1.906372e-001	9:-4.880792e-001	10:2.393756e-001	11:3.059597e-001	12:4.028381e-001
1.578361e+001	1:1.203918e-001	2:-8.795319e-003	3:1.115543e-001	4:-1.167282e-001	5:-1.884699e-001	6:-7.554464e-001	7:-7.192374e-001	8:-6.313926e-002	9:-4.918275e-001	10:2.878688e-001	11:3.793343e-001	12:4.657915e-001
1.578361e+001	1:-1.031234e-002	2:1.240240e-001	3:8.140002e-002	4:-2.979193e-002	5:-2.481556e-001	6:-8.057931e-001	7:-5.224168e-001	8:-9.807898e-002	9:-5.276537e-001	10:2.761703e-001	11:3.379905e-001	12:4.464684e-001
1.578361e+001	1:1.203918e-001	2:3.292902e-001	3:8.140002e-002	4:-3.808583e-002	5:-2.652390e-001	6:-8.455627e-001	7:-5.363907e-001	8:-2.137847e-001	9:-5.707281e-001	10:2.883227e-001	11:3.721609e-001	12:4.861822e-001
1.578361e+001	1:2.629782e-001	2:-1.416146e-001	3:1.353603e-001	4:9.997625e-002	5:-2.584986e-001	6:-8.015305e-001	7:-3.420349e-001	8:-5.376177e-003	9:-2.390684e-001	10:2.612646e-001	11:3.675813e-001	12:4.533151e-001
1.578361e+001	1:2.035672e-001	2:1.360985e-001	3:1.258379e-001	4:-7.626730e-002	5:-5.705296e-001	6:-7.227870e-001	7:-1.901421e-001	8:-5.787751e-002	9:-1.857794e-001	10:2.728967e-001	11:3.747942e-001	12:4.683748e-001
1.578361e+001	1:9.662744e-002	2:1.481730e-001	3:9.250949e-002	4:-3.362182e-002	5:-2.763584e-001	6:-8.769942e-001	7:-4.279448e-001	8:-3.537843e-002	9:-4.567057e-001	10:1.610370e-001	11:3.627027e-001	12:4.608587e-001
1.578361e+001	1:2.154494e-001	2:2.742813e-002	3:1.496439e-001	4:-9.352898e-002	5:-1.850116e-001	6:-7.743320e-001	7:-4.754693e-001	8:-1.184328e-001	9:-5.952920e-001	10:2.606848e-001	11:3.431831e-001	12:4.401997e-001
-7.318334e+000	1:2.533425e-002	2:-1.416146e-001	3:1.829723e-001	4:-1.114864e-001	5:-1.689623e-001	6:-7.988444e-001	7:-6.354106e-001	8:-1.175073e-001	9:-6.196440e-001	10:2.125978e-001	11:2.800722e-001	12:3.878683e-001
-7.318334e+000	1:-1.410165e-001	2:1.535365e-002	3:2.020171e-001	4:-1.704391e-001	5:-1.789916e-001	6:-7.091487e-001	7:-8.585223e-001	8:-1.142685e-001	9:-5.231520e-001	10:2.274595e-001	11:2.670627e-001	12:3.737104e-001
-7.318334e+000	1:2.748604e-001	2:6.365158e-002	3:2.401068e-001	4:-3.531611e-002	5:-2.629031e-001	6:-8.384028e-001	7:-4.410262e-001	8:-6.976985e-002	9:-5.085908e-001	10:2.446433e-001	11:3.055654e-001	12:4.240505e-001
-7.318334e+000	1:7.286304e-002	2:1.723219e-001	3:3.988135e-001	4:-5.574278e-002	5:-2.770367e-001	6:-8.562396e-001	7:-5.068417e-001	8:-1.009701e-001	9:-5.563707e-001	10:2.419297e-001	11:3.075158e-001	12:4.290016e-001
-7.318334e+000	1:1.322740e-001	2:1.964709e-001	3:2.226490e-001	4:-5.943911e-002	5:-2.347239e-001	6:-8.028265e-001	7:-6.222658e-001	8:-1.866074e-001	9:-5.749763e-001	10:2.741281e-001	11:3.387569e-001	12:4.467519e-001
-7.318334e+000	1:2.533425e-002	2:1.535365e-002	3:1.052060e-001	4:-3.707048e-002	5:-1.946693e-001	6:-7.644287e-001	7:-8.125895e-001	8:-2.159967e-001	9:-5.426751e-001	10:2.355617e-001	11:3.153543e-001	12:4.113431e-001
-7.318334e+000	1:2.035672e-001	2:-6.245940e-001	3:1.718629e-001	4:-1.006192e-001	5:-2.213925e-001	6:-8.537995e-001	7:-7.003458e-001	8:-1.191504e-001	9:-4.621454e-001	10:3.034742e-001	11:3.663796e-001	12:4.625707e-001
-7.318334e+000	1:9.877922e-001	2:1.964709e-001	3:2.004301e-001	4:3.176064e-003	5:-1.630737e-001	6:-7.097374e-001	7:-6.007660e-001	8:-6.407901e-002	9:-5.548220e-001	10:2.293837e-001	11:2.804039e-001	12:3.650657e-001
-7.318334e+000	1:1.916850e-001	2:1.723219e-001	3:2.496292e-001	4:-4.473785e-002	5:-2.395489e-001	6:-8.628418e-001	7:-4.774376e-001	8:-9.863793e-002	9:-5.734254e-001	10:2.768050e-001	11:3.596797e-001	12:4.352024e-001
-7.318334e+000	1:4.887400e-001	2:2.930668e-001	3:2.639128e-001	4:-5.608754e-002	5:-5.375658e-001	6:-9.803894e-001	7:-5.637510e-001	8:-5.127510e-002	9:-3.590330e-001	10:2.832667e-001	11:3.427802e-001	12:4.402811e-001
-7.318334e+000	1:1.916850e-001	2:1.119495e-001	3:4.527738e-001	4:-1.264770e-001	5:-1.381208e-001	6:-7.359577e-001	7:-6.507106e-001	8:-4.587891e-002	9:-5.920111e-001	10:2.496587e-001	11:2.949619e-001	12:3.688150e-001
-7.318334e+000	1:2.629782e-001	2:1.843964e-001	3:2.940671e-001	4:-2.077774e-002	5:-2.318216e-001	6:-8.142834e-001	7:-8.340047e-001	8:-1.718416e-001	9:-4.633836e-001	10:2.581998e-001	11:3.724055e-001	12:5.024826e-001
-7.318334e+000	1:1.203918e-001	2:3.413647e-001	3:3.083507e-001	4:-1.592361e-003	5:-1.944542e-001	6:-7.805293e-001	7:-7.965576e-001	8:-2.392036e-002	9:-4.819982e-001	10:2.740691e-001	11:3.391504e-001	12:4.553935e-001
-7.318334e+000	1:3.342714e-001	2:4.500351e-001	3:2.750222e-001	4:-1.299044e-001	5:-3.422867e-001	6:-9.965787e-001	7:-5.551245e-001	8:-1.865457e-002	9:-3.739616e-001	10:2.914105e-001	11:3.769487e-001	12:4.684812e-001
-7.318334e+000	1:4.412112e-001	2:2.326944e-001	3:2.464550e-001	4:-1.043613e-001	5:-4.597318e-001	6:-9.377181e-001	7:-8.490701e-001	8:-1.960790e-001	9:-4.633794e-001	10:2.732984e-001	11:3.898301e-001	12:4.909300e-001
-7.318334e+000	1:2.273316e-001	2:2.930668e-001	3:2.528033e-001	4:-3.395113e-002	5:-2.057632e-001	6:-8.428237e-001	7:-3.289445e-001	8:1.413153e-001	9:8.998459e-002	10:1.623790e-001	11:3.346626e-001	12:4.454178e-001
-7.318334e+000	1:2.867426e-001	2:1.360985e-001	3:2.908929e-001	4:-2.808022e-002	5:-5.401148e-001	6:-9.218557e-001	7:-3.817496e-001	8:-1.658898e-002	9:-5.605153e-001	10:2.899883e-001	11:3.397433e-001	12:4.473926e-001
-7.318334e+000	1:3.721645e-002	2:1.240240e-001	3:2.781964e-001	4:-1.023833e-001	5:-1.915326e-001	6:-8.584387e-001	7:-3.428176e-001	8:-2.563684e-002	9:-4.557736e-001	10:2.737059e-001	11:3.346035e-001	12:4.494264e-001
-7.318334e+000	1:1.203918e-001	2:3.534392e-001	3:2.686740e-001	4:3.734693e-002	5:-1.779746e-001	6:-7.898940e-001	7:-7.469001e-001	8:-4.896744e-002	9:-3.805109e-001	10:2.772928e-001	11:3.718524e-001	12:4.839847e-001
-7.318334e+000	1:1.560384e-001	2:1.843964e-001	3:3.194601e-001	4:-2.183711e-002	5:-2.695615e-001	6:-9.604844e-001	7:-4.156342e-001	8:-6.667219e-002	9:-5.537861e-001	10:2.683892e-001	11:3.042785e-001	12:4.225193e-001
-7.318334e+000	1:1.679206e-001	2:3.172157e-001	3:2.448680e-001	4:-7.768336e-002	5:-1.474998e-001	6:-8.135387e-001	7:-6.582116e-001	8:-1.543382e-001	9:-4.740508e-001	10:2.863463e-001	11:3.569091e-001	12:4.910577e-001
-7.318334e+000	1:3.105070e-001	2:2.930668e-001	3:2.528033e-001	4:-2.557170e-002	5:-2.083403e-001	6:-8.572909e-001	7:-4.877851e-001	8:-4.008925e-002	9:-5.782627e-001	10:2.317101e-001	11:3.525183e-001	12:4.734037e-001
-7.318334e+000	1:7.286304e-002	2:3.950262e-002	3:3.083507e-001	4:-1.339238e-001	5:-2.047164e-001	6:-8.118685e-001	7:-6.645001e-001	8:-3.019555e-001	9:-6.167686e-001	10:2.664124e-001	11:3.466658e-001	12:4.646162e-001
-7.318334e+000	1:1.203918e-001	2:1.964709e-001	3:3.464403e-001	4:-2.059478e-001	5:-2.098484e-001	6:-7.875886e-001	7:-6.962708e-001	8:-1.481396e-001	9:-5.501527e-001	10:2.778346e-001	11:3.476518e-001	12:4.413758e-001
-7.318334e+000	1:1.560384e-001	2:3.896627e-001	3:2.893059e-001	4:-2.368671e-002	5:-2.241563e-001	6:-8.083404e-001	7:-5.328419e-001	8:-5.901534e-002	9:-5.211821e-001	10:1.898713e-001	11:3.598956e-001	12:4.471397e-001
-7.318334e+000	1:3.818002e-001	2:3.051413e-001	3:2.702610e-001	4:-9.531533e-003	5:-1.766446e-001	6:-8.279157e-001	7:-7.378532e-001	8:-1.446987e-001	9:-5.179152e-001	10:2.639751e-001	11:3.336651e-001	12:4.888227e-001
-7.318334e+000	1:3.721645e-002	2:1.481730e-001	3:2.972412e-001	4:1.449358e-002	5:-1.117567e-001	6:-7.053139e-001	7:-6.210229e-001	8:-1.129189e-001	9:-5.825880e-001	10:2.722809e-001	11:3.804049e-001	12:4.789879e-001
-7.318334e+000	1:1.441562e-001	2:1.360985e-001	3:3.210472e-001	4:-1.720314e-001	5:-1.851964e-001	6:-7.948858e-001	7:-4.605754e-001	8:4.972949e-002	9:-5.336390e-001	10:2.627057e-001	11:2.534885e-001	12:3.825195e-001
-7.318334e+000	1:1.322740e-001	2:1.843964e-001	3:2.988283e-001	4:1.258335e-002	5:-1.657899e-001	6:-7.695584e-001	7:-7.535946e-001	8:-1.588620e-001	9:-5.664624e-001	10:2.461093e-001	11:3.033670e-001	12:4.189320e-001
-7.318334e+000	1:1.798028e-001	2:2.206199e-001	3:2.528033e-001	4:-7.278298e-002	5:-2.613085e-001	6:-9.298595e-001	7:-6.461999e-001	8:-2.609642e-001	9:-5.655757e-001	10:2.842462e-001	11:3.573231e-001	12:4.345816e-001
-7.318334e+000	1:2.154494e-001	2:2.809923e-001	3:2.131266e-001	4:4.023022e-002	5:-1.174897e-001	6:-7.559048e-001	7:-7.505243e-001	8:-1.459752e-001	9:-4.620606e-001	10:2.733143e-001	11:3.637897e-001	12:4.791560e-001
-7.318334e+000	1:3.721645e-002	2:3.279164e-003	3:2.639128e-001	4:5.940510e-003	5:-1.648560e-001	6:-6.660942e-001	7:-8.300565e-001	8:-2.586757e-001	9:-5.929767e-001	10:2.222769e-001	11:3.665581e-001	12:4.126840e-001
-7.318334e+000	1:2.748604e-001	2:3.051413e-001	3:1.940818e-001	4:-9.372759e-003	5:-1.806134e-001	6:-7.743158e-001	7:-7.393664e-001	8:-1.557864e-001	9:-4.337104e-001	10:2.755336e-001	11:3.731663e-001	12:4.588756e-001
-7.318334e+000	1:7.286304e-002	2:1.240240e-001	3:2.988283e-001	4:-3.586603e-002	5:-2.837253e-001	6:-8.650474e-001	7:-6.106515e-001	8:-6.596011e-002	9:-3.729730e-001	10:2.253271e-001	11:3.520504e-001	12:5.142095e-001
-7.318334e+000	1:1.203918e-001	2:1.360985e-001	3:2.861317e-001	4:7.934247e-002	5:-5.130226e-001	6:-8.347566e-001	7:-6.397939e-001	8:-1.454003e-001	9:-5.989031e-001	10:2.433680e-001	11:2.902038e-001	12:3.535474e-001
-7.318334e+000	1:3.342714e-001	2:3.051413e-001	3:2.448680e-001	4:-1.429401e-001	5:-2.654680e-001	6:-8.187532e-001	7:-6.044804e-001	8:-2.272465e-001	9:-5.846510e-001	10:2.864410e-001	11:3.641438e-001	12:4.853634e-001
-7.318334e+000	1:1.798028e-001	2:2.742813e-002	3:2.861317e-001	4:-5.658463e-002	5:-2.473724e-001	6:-8.537893e-001	7:-4.902774e-001	8:-1.508261e-001	9:-5.917788e-001	10:2.521024e-001	11:2.937407e-001	12:3.564700e-001
-7.318334e+000	1:2.154494e-001	2:3.292902e-001	3:2.321714e-001	4:-1.179546e-001	5:-1.939959e-001	6:-8.458615e-001	7:-4.356070e-001	8:-5.714766e-002	9:-5.516565e-001	10:3.155020e-001	11:3.588058e-001	12:4.542567e-001
-7.318334e+000	1:3.223892e-001	2:3.413647e-001	3:2.051913e-001	4:5.877465e-002	5:-2.270505e-001	6:-8.836077e-001	7:-5.611737e-001	8:-7.436443e-002	9:-4.847657e-001	10:2.885669e-001	11:3.466755e-001	12:4.567797e-001
-7.318334e+000	1:3.342714e-001	2:1.602475e-001	3:2.274102e-001	4:-1.040382e-001	5:-8.267022e-001	6:-9.619588e-001	7:-4.655923e-001	8:-2.081052e-001	9:-4.759978e-001	10:2.650765e-001	11:3.982046e-001	12:4.951806e-001
-7.318334e+000	1:1.798028e-001	2:5.157710e-002	3:2.512162e-001	4:-1.187314e-003	5:-1.573276e-001	6:-7.984775e-001	7:-5.344044e-001	8:-1.688043e-002	9:-5.694667e-001	10:2.471647e-001	11:3.109977e-001	12:3.891627e-001
-7.318334e+000	1:-2.219454e-002	2:1.964709e-001	3:2.115396e-001	4:-5.670892e-002	5:-2.720846e-001	6:-8.552112e-001	7:-6.110220e-001	8:-2.002844e-001	9:-5.640114e-001	10:2.526263e-001	11:3.318637e-001	12:4.649460e-001
-7.318334e+000	1:1.560384e-001	2:8.780055e-002	3:1.607534e-001	4:-4.985152e-002	5:-1.874331e-001	6:-8.647528e-001	7:-4.974938e-001	8:-1.326990e-001	9:-5.509697e-001	10:2.579037e-001	11:2.908182e-001	12:4.174757e-001
-7.318334e+000	1:8.474524e-002	2:3.279164e-003	3:2.115396e-001	4:-1.649071e-001	5:-2.108614e-001	6:-8.929331e-001	7:-2.587000e-001	8:4.755188e-002	9:-1.911820e-001	10:2.413776e-001	11:3.493570e-001	12:4.534977e-001
-7.318334e+000	1:1.569858e-003	2:1.240240e-001	3:2.147137e-001	4:-2.081829e-002	5:-2.165096e-001	6:-6.932585e-001	7:-7.730264e-001	8:-1.995279e-001	9:-5.297892e-001	10:2.524493e-001	11:3.751856e-001	12:5.005170e-001
-7.318334e+000	1:1.203918e-001	2:1.119495e-001	3:2.099525e-001	4:8.504010e-002	5:-2.425516e-001	6:-8.403391e-001	7:-1.658475e-001	8:8.756612e-002	9:-4.489768e-001	10:2.936205e-001	11:3.137955e-001	12:4.448916e-001
-7.318334e+000	1:2.154494e-001	2:1.723219e-001	3:2.083654e-001	4:-5.930837e-002	5:-3.131972e-001	6:-8.323096e-001	7:-3.382440e-001	8:5.902168e-002	9:-1.492749e-001	10:2.194300e-001	11:4.045290e-001	12:5.138301e-001
-7.318334e+000	1:1.679206e-001	2:1.360985e-001	3:2.369326e-001	4:-8.256759e-003	5:-1.499282e-001	6:-8.051454e-001	7:-6.010900e-001	8:2.350152e-002	9:-4.637295e-001	10:2.832535e-001	11:3.011871e-001	12:3.830923e-001
-7.318334e+000	1:1.322740e-001	2:-8.298602e-001	3:2.654998e-001	4:-1.066945e-001	5:-1.915722e-001	6:-7.685390e-001	7:-7.717777e-001	8:-1.316218e-001	9:-4.827182e-001	10:2.779962e-001	11:3.511001e-001	12:4.547838e-001
-7.318334e+000	1:7.857949e-001	2:3.655137e-001	3:2.686740e-001	4:1.699586e-002	5:-4.060864e-001	6:-9.461850e-001	7:-6.138684e-001	8:-1.268382e-001	9:-4.410283e-001	10:2.479798e-001	11:3.827376e-001	12:4.676498e-001
-7.318334e+000	1:1.679206e-001	2:-8.795319e-003	3:3.146989e-001	4:-1.749793e-001	5:-4.051919e-001	6:-9.683551e-001	7:-4.417282e-001	8:2.605747e-003	9:-4.774832e-001	10:2.609724e-001	11:3.243020e-001	12:4.490432e-001
-7.318334e+000	1:-1.031234e-002	2:1.240240e-001	3:3.004153e-001	4:-1.848302e-002	5:-1.682593e-001	6:-8.280085e-001	7:-8.267603e-001	8:-1.151223e-001	9:-5.101218e-001	10:2.472191e-001	11:3.125162e-001	12:4.111788e-001
-7.318334e+000	1:2.510960e-001	2:6.365158e-002	3:1.909077e-001	4:3.357344e-002	5:-1.385756e-001	6:-8.295598e-001	7:-5.983856e-001	8:-1.992968e-001	9:-6.058535e-001	10:2.299015e-001	11:2.907346e-001	12:3.827125e-001
-7.318334e+000	1:1.322740e-001	2:9.987504e-002	3:2.337585e-001	4:-1.626200e-001	5:-1.521813e-001	6:-8.096188e-001	7:-5.858253e-001	8:-1.596098e-001	9:-5.860301e-001	10:2.440984e-001	11:3.330468e-001	12:4.221725e-001
-7.318334e+000	1:2.035672e-001	2:2.930668e-001	3:1.401215e-001	4:-1.418557e-001	5:-3.462449e-001	6:-9.533186e-001	7:-6.534782e-001	8:-1.720049e-001	9:-4.926179e-001	10:2.727853e-001	11:3.831309e-001	12:5.269946e-001
-7.318334e+000	1:-2.219454e-002	2:-6.916774e-002	3:2.829576e-001	4:-1.547639e-001	5:-1.922458e-001	6:-6.842975e-001	7:-9.311564e-001	8:-2.323782e-001	9:-5.555392e-001	10:2.776034e-001	11:3.796701e-001	12:4.485874e-001
-7.318334e+000	1:2.273316e-001	2:2.568433e-001	3:1.607534e-001	4:-5.741293e-002	5:-4.139213e-001	6:-1.052173e+000	7:-6.102362e-001	8:-7.903708e-002	9:-4.298806e-001	10:2.868056e-001	11:3.613933e-001	12:4.668622e-001
-7.318334e+000	1:1.679206e-001	2:2.568433e-001	3:2.242361e-001	4:-1.043896e-002	5:-1.804054e-001	6:-7.518848e-001	7:-7.108715e-001	8:-1.045431e-001	9:-4.885220e-001	10:2.688207e-001	11:3.763243e-001	12:5.194698e-001
-7.318334e+000	1:1.203918e-001	2:3.279164e-003	3:2.528033e-001	4:1.482350e-002	5:-1.508759e-001	6:-8.218295e-001	7:-8.301555e-001	8:-1.285403e-001	9:-5.467449e-001	10:2.189913e-001	11:2.461006e-001	12:3.907707e-001
-7.318334e+000	1:2.510960e-001	2:2.206199e-001	3:1.877335e-001	4:5.320883e-002	5:-4.686288e-001	6:-8.681288e-001	7:-5.750722e-001	8:3.987327e-003	9:-3.947475e-001	10:2.967616e-001	11:3.717876e-001	12:4.419863e-001
-7.318334e+000	1:7.286304e-002	2:1.602475e-001	3:2.448680e-001	4:-2.498199e-001	5:-1.728712e-001	6:-8.189060e-001	7:-6.195460e-001	8:1.152631e-001	9:-4.052537e-001	10:2.801141e-001	11:3.587921e-001	12:4.313398e-001
-7.318334e+000	1:1.560384e-001	2:1.119495e-001	3:2.147137e-001	4:-1.106724e-002	5:-1.375341e-001	6:-7.701446e-001	7:-8.175460e-001	8:-8.111528e-002	9:-5.119912e-001	10:2.700994e-001	11:3.249652e-001	12:3.988150e-001
-7.318334e+000	1:3.461536e-001	2:2.568433e-001	3:1.401215e-001	4:-1.970644e-001	5:-3.297313e-001	6:-8.026471e-001	7:-3.071036e-001	8:1.378529e-001	9:-1.587513e-001	10:2.761329e-001	11:3.933046e-001	12:4.703539e-001
